<?xml version="1.0" encoding="UTF-8" standalone="yes"?>
<PMML xmlns="http://www.dmg.org/PMML-4_4" xmlns:data="http://jpmml.org/jpmml-model/InlineTable" version="4.4">
	<Header>
		<Application name="JPMML-SkLearn" version="1.6.33"/>
		<Timestamp>2021-11-28T16:21:56Z</Timestamp>
	</Header>
	<DataDictionary>
		<DataField name="Label" optype="categorical" dataType="integer">
			<Value value="0"/>
			<Value value="1"/>
			<Value value="2"/>
			<Value value="3"/>
			<Value value="4"/>
			<Value value="5"/>
			<Value value="6"/>
			<Value value="7"/>
			<Value value="8"/>
			<Value value="9"/>
		</DataField>
		<DataField name="Text" optype="categorical" dataType="string"/>
	</DataDictionary>
	<TransformationDictionary>
		<DefineFunction name="tf-idf(lowercase(Text))" optype="continuous" dataType="double">
			<ParameterField name="document"/>
			<ParameterField name="term"/>
			<ParameterField name="weight"/>
			<Apply function="*">
				<TextIndex textField="document" x-wordRE="(?u)\b\w\w+\b">
					<FieldRef field="term"/>
				</TextIndex>
				<FieldRef field="weight"/>
			</Apply>
		</DefineFunction>
	</TransformationDictionary>
	<MiningModel functionName="classification" algorithmName="sklearn.linear_model._logistic.LogisticRegression">
		<MiningSchema>
			<MiningField name="Label" usageType="target"/>
			<MiningField name="Text"/>
		</MiningSchema>
		<LocalTransformations>
			<DerivedField name="lowercase(Text)" optype="categorical" dataType="string">
				<Apply function="lowercase">
					<FieldRef field="Text"/>
				</Apply>
			</DerivedField>
			<DerivedField name="tf-idf(lowercase(Text), 10)" optype="continuous" dataType="double">
				<Apply function="tf-idf(lowercase(Text))">
					<FieldRef field="lowercase(Text)"/>
					<Constant dataType="string">10</Constant>
					<Constant dataType="double">4.701748103943672</Constant>
				</Apply>
			</DerivedField>
			<DerivedField name="tf-idf(lowercase(Text), 19)" optype="continuous" dataType="double">
				<Apply function="tf-idf(lowercase(Text))">
					<FieldRef field="lowercase(Text)"/>
					<Constant dataType="string">19</Constant>
					<Constant dataType="double">5.071706523594926</Constant>
				</Apply>
			</DerivedField>
			<DerivedField name="tf-idf(lowercase(Text), 3d)" optype="continuous" dataType="double">
				<Apply function="tf-idf(lowercase(Text))">
					<FieldRef field="lowercase(Text)"/>
					<Constant dataType="string">3d</Constant>
					<Constant dataType="double">4.722032775115178</Constant>
				</Apply>
			</DerivedField>
			<DerivedField name="tf-idf(lowercase(Text), ability)" optype="continuous" dataType="double">
				<Apply function="tf-idf(lowercase(Text))">
					<FieldRef field="lowercase(Text)"/>
					<Constant dataType="string">ability</Constant>
					<Constant dataType="double">4.207933826004218</Constant>
				</Apply>
			</DerivedField>
			<DerivedField name="tf-idf(lowercase(Text), able)" optype="continuous" dataType="double">
				<Apply function="tf-idf(lowercase(Text))">
					<FieldRef field="lowercase(Text)"/>
					<Constant dataType="string">able</Constant>
					<Constant dataType="double">4.024795609303707</Constant>
				</Apply>
			</DerivedField>
			<DerivedField name="tf-idf(lowercase(Text), abstract)" optype="continuous" dataType="double">
				<Apply function="tf-idf(lowercase(Text))">
					<FieldRef field="lowercase(Text)"/>
					<Constant dataType="string">abstract</Constant>
					<Constant dataType="double">4.794250982926977</Constant>
				</Apply>
			</DerivedField>
			<DerivedField name="tf-idf(lowercase(Text), access)" optype="continuous" dataType="double">
				<Apply function="tf-idf(lowercase(Text))">
					<FieldRef field="lowercase(Text)"/>
					<Constant dataType="string">access</Constant>
					<Constant dataType="double">3.4587863093249513</Constant>
				</Apply>
			</DerivedField>
			<DerivedField name="tf-idf(lowercase(Text), access control)" optype="continuous" dataType="double">
				<Apply function="tf-idf(lowercase(Text))">
					<FieldRef field="lowercase(Text)"/>
					<Constant dataType="string">access control</Constant>
					<Constant dataType="double">5.306546114672328</Constant>
				</Apply>
			</DerivedField>
			<DerivedField name="tf-idf(lowercase(Text), accord)" optype="continuous" dataType="double">
				<Apply function="tf-idf(lowercase(Text))">
					<FieldRef field="lowercase(Text)"/>
					<Constant dataType="string">accord</Constant>
					<Constant dataType="double">4.34146521862874</Constant>
				</Apply>
			</DerivedField>
			<DerivedField name="tf-idf(lowercase(Text), account)" optype="continuous" dataType="double">
				<Apply function="tf-idf(lowercase(Text))">
					<FieldRef field="lowercase(Text)"/>
					<Constant dataType="string">account</Constant>
					<Constant dataType="double">4.50546819489901</Constant>
				</Apply>
			</DerivedField>
			<DerivedField name="tf-idf(lowercase(Text), accuracy)" optype="continuous" dataType="double">
				<Apply function="tf-idf(lowercase(Text))">
					<FieldRef field="lowercase(Text)"/>
					<Constant dataType="string">accuracy</Constant>
					<Constant dataType="double">3.567629126818652</Constant>
				</Apply>
			</DerivedField>
			<DerivedField name="tf-idf(lowercase(Text), accurate)" optype="continuous" dataType="double">
				<Apply function="tf-idf(lowercase(Text))">
					<FieldRef field="lowercase(Text)"/>
					<Constant dataType="string">accurate</Constant>
					<Constant dataType="double">4.316567667007013</Constant>
				</Apply>
			</DerivedField>
			<DerivedField name="tf-idf(lowercase(Text), achieve)" optype="continuous" dataType="double">
				<Apply function="tf-idf(lowercase(Text))">
					<FieldRef field="lowercase(Text)"/>
					<Constant dataType="string">achieve</Constant>
					<Constant dataType="double">2.941953273776895</Constant>
				</Apply>
			</DerivedField>
			<DerivedField name="tf-idf(lowercase(Text), across)" optype="continuous" dataType="double">
				<Apply function="tf-idf(lowercase(Text))">
					<FieldRef field="lowercase(Text)"/>
					<Constant dataType="string">across</Constant>
					<Constant dataType="double">3.9129257134603637</Constant>
				</Apply>
			</DerivedField>
			<DerivedField name="tf-idf(lowercase(Text), action)" optype="continuous" dataType="double">
				<Apply function="tf-idf(lowercase(Text))">
					<FieldRef field="lowercase(Text)"/>
					<Constant dataType="string">action</Constant>
					<Constant dataType="double">4.542447198140097</Constant>
				</Apply>
			</DerivedField>
			<DerivedField name="tf-idf(lowercase(Text), active)" optype="continuous" dataType="double">
				<Apply function="tf-idf(lowercase(Text))">
					<FieldRef field="lowercase(Text)"/>
					<Constant dataType="string">active</Constant>
					<Constant dataType="double">4.738562077066388</Constant>
				</Apply>
			</DerivedField>
			<DerivedField name="tf-idf(lowercase(Text), activity)" optype="continuous" dataType="double">
				<Apply function="tf-idf(lowercase(Text))">
					<FieldRef field="lowercase(Text)"/>
					<Constant dataType="string">activity</Constant>
					<Constant dataType="double">3.822271345192233</Constant>
				</Apply>
			</DerivedField>
			<DerivedField name="tf-idf(lowercase(Text), ad)" optype="continuous" dataType="double">
				<Apply function="tf-idf(lowercase(Text))">
					<FieldRef field="lowercase(Text)"/>
					<Constant dataType="string">ad</Constant>
					<Constant dataType="double">4.993454326695177</Constant>
				</Apply>
			</DerivedField>
			<DerivedField name="tf-idf(lowercase(Text), ad hoc)" optype="continuous" dataType="double">
				<Apply function="tf-idf(lowercase(Text))">
					<FieldRef field="lowercase(Text)"/>
					<Constant dataType="string">ad hoc</Constant>
					<Constant dataType="double">5.162955195060071</Constant>
				</Apply>
			</DerivedField>
			<DerivedField name="tf-idf(lowercase(Text), adapt)" optype="continuous" dataType="double">
				<Apply function="tf-idf(lowercase(Text))">
					<FieldRef field="lowercase(Text)"/>
					<Constant dataType="string">adapt</Constant>
					<Constant dataType="double">4.402089840445175</Constant>
				</Apply>
			</DerivedField>
			<DerivedField name="tf-idf(lowercase(Text), adaptive)" optype="continuous" dataType="double">
				<Apply function="tf-idf(lowercase(Text))">
					<FieldRef field="lowercase(Text)"/>
					<Constant dataType="string">adaptive</Constant>
					<Constant dataType="double">4.411058510427935</Constant>
				</Apply>
			</DerivedField>
			<DerivedField name="tf-idf(lowercase(Text), add)" optype="continuous" dataType="double">
				<Apply function="tf-idf(lowercase(Text))">
					<FieldRef field="lowercase(Text)"/>
					<Constant dataType="string">add</Constant>
					<Constant dataType="double">4.489101217434804</Constant>
				</Apply>
			</DerivedField>
			<DerivedField name="tf-idf(lowercase(Text), addition)" optype="continuous" dataType="double">
				<Apply function="tf-idf(lowercase(Text))">
					<FieldRef field="lowercase(Text)"/>
					<Constant dataType="string">addition</Constant>
					<Constant dataType="double">3.851013814057887</Constant>
				</Apply>
			</DerivedField>
			<DerivedField name="tf-idf(lowercase(Text), additional)" optype="continuous" dataType="double">
				<Apply function="tf-idf(lowercase(Text))">
					<FieldRef field="lowercase(Text)"/>
					<Constant dataType="string">additional</Constant>
					<Constant dataType="double">4.454009897623535</Constant>
				</Apply>
			</DerivedField>
			<DerivedField name="tf-idf(lowercase(Text), address)" optype="continuous" dataType="double">
				<Apply function="tf-idf(lowercase(Text))">
					<FieldRef field="lowercase(Text)"/>
					<Constant dataType="string">address</Constant>
					<Constant dataType="double">3.218866540133149</Constant>
				</Apply>
			</DerivedField>
			<DerivedField name="tf-idf(lowercase(Text), adopt)" optype="continuous" dataType="double">
				<Apply function="tf-idf(lowercase(Text))">
					<FieldRef field="lowercase(Text)"/>
					<Constant dataType="string">adopt</Constant>
					<Constant dataType="double">4.279029747687948</Constant>
				</Apply>
			</DerivedField>
			<DerivedField name="tf-idf(lowercase(Text), adoption)" optype="continuous" dataType="double">
				<Apply function="tf-idf(lowercase(Text))">
					<FieldRef field="lowercase(Text)"/>
					<Constant dataType="string">adoption</Constant>
					<Constant dataType="double">4.966927572361749</Constant>
				</Apply>
			</DerivedField>
			<DerivedField name="tf-idf(lowercase(Text), advance)" optype="continuous" dataType="double">
				<Apply function="tf-idf(lowercase(Text))">
					<FieldRef field="lowercase(Text)"/>
					<Constant dataType="string">advance</Constant>
					<Constant dataType="double">4.53222564406856</Constant>
				</Apply>
			</DerivedField>
			<DerivedField name="tf-idf(lowercase(Text), advantage)" optype="continuous" dataType="double">
				<Apply function="tf-idf(lowercase(Text))">
					<FieldRef field="lowercase(Text)"/>
					<Constant dataType="string">advantage</Constant>
					<Constant dataType="double">4.132426273496073</Constant>
				</Apply>
			</DerivedField>
			<DerivedField name="tf-idf(lowercase(Text), adversarial)" optype="continuous" dataType="double">
				<Apply function="tf-idf(lowercase(Text))">
					<FieldRef field="lowercase(Text)"/>
					<Constant dataType="string">adversarial</Constant>
					<Constant dataType="double">5.291947315251175</Constant>
				</Apply>
			</DerivedField>
			<DerivedField name="tf-idf(lowercase(Text), affect)" optype="continuous" dataType="double">
				<Apply function="tf-idf(lowercase(Text))">
					<FieldRef field="lowercase(Text)"/>
					<Constant dataType="string">affect</Constant>
					<Constant dataType="double">4.101103802367032</Constant>
				</Apply>
			</DerivedField>
			<DerivedField name="tf-idf(lowercase(Text), agent)" optype="continuous" dataType="double">
				<Apply function="tf-idf(lowercase(Text))">
					<FieldRef field="lowercase(Text)"/>
					<Constant dataType="string">agent</Constant>
					<Constant dataType="double">4.798666001136093</Constant>
				</Apply>
			</DerivedField>
			<DerivedField name="tf-idf(lowercase(Text), agile)" optype="continuous" dataType="double">
				<Apply function="tf-idf(lowercase(Text))">
					<FieldRef field="lowercase(Text)"/>
					<Constant dataType="string">agile</Constant>
					<Constant dataType="double">5.584472012178743</Constant>
				</Apply>
			</DerivedField>
			<DerivedField name="tf-idf(lowercase(Text), ai)" optype="continuous" dataType="double">
				<Apply function="tf-idf(lowercase(Text))">
					<FieldRef field="lowercase(Text)"/>
					<Constant dataType="string">ai</Constant>
					<Constant dataType="double">5.125450799601617</Constant>
				</Apply>
			</DerivedField>
			<DerivedField name="tf-idf(lowercase(Text), aim)" optype="continuous" dataType="double">
				<Apply function="tf-idf(lowercase(Text))">
					<FieldRef field="lowercase(Text)"/>
					<Constant dataType="string">aim</Constant>
					<Constant dataType="double">3.4587863093249513</Constant>
				</Apply>
			</DerivedField>
			<DerivedField name="tf-idf(lowercase(Text), al)" optype="continuous" dataType="double">
				<Apply function="tf-idf(lowercase(Text))">
					<FieldRef field="lowercase(Text)"/>
					<Constant dataType="string">al</Constant>
					<Constant dataType="double">4.8165236185361</Constant>
				</Apply>
			</DerivedField>
			<DerivedField name="tf-idf(lowercase(Text), algorithm)" optype="continuous" dataType="double">
				<Apply function="tf-idf(lowercase(Text))">
					<FieldRef field="lowercase(Text)"/>
					<Constant dataType="string">algorithm</Constant>
					<Constant dataType="double">2.5757180933311785</Constant>
				</Apply>
			</DerivedField>
			<DerivedField name="tf-idf(lowercase(Text), algorithms)" optype="continuous" dataType="double">
				<Apply function="tf-idf(lowercase(Text))">
					<FieldRef field="lowercase(Text)"/>
					<Constant dataType="string">algorithms</Constant>
					<Constant dataType="double">4.693748061276596</Constant>
				</Apply>
			</DerivedField>
			<DerivedField name="tf-idf(lowercase(Text), allocation)" optype="continuous" dataType="double">
				<Apply function="tf-idf(lowercase(Text))">
					<FieldRef field="lowercase(Text)"/>
					<Constant dataType="string">allocation</Constant>
					<Constant dataType="double">4.848562972280717</Constant>
				</Apply>
			</DerivedField>
			<DerivedField name="tf-idf(lowercase(Text), allow)" optype="continuous" dataType="double">
				<Apply function="tf-idf(lowercase(Text))">
					<FieldRef field="lowercase(Text)"/>
					<Constant dataType="string">allow</Constant>
					<Constant dataType="double">3.0560286095617366</Constant>
				</Apply>
			</DerivedField>
			<DerivedField name="tf-idf(lowercase(Text), along)" optype="continuous" dataType="double">
				<Apply function="tf-idf(lowercase(Text))">
					<FieldRef field="lowercase(Text)"/>
					<Constant dataType="string">along</Constant>
					<Constant dataType="double">4.662372938708842</Constant>
				</Apply>
			</DerivedField>
			<DerivedField name="tf-idf(lowercase(Text), also)" optype="continuous" dataType="double">
				<Apply function="tf-idf(lowercase(Text))">
					<FieldRef field="lowercase(Text)"/>
					<Constant dataType="string">also</Constant>
					<Constant dataType="double">2.381646639527295</Constant>
				</Apply>
			</DerivedField>
			<DerivedField name="tf-idf(lowercase(Text), alternative)" optype="continuous" dataType="double">
				<Apply function="tf-idf(lowercase(Text))">
					<FieldRef field="lowercase(Text)"/>
					<Constant dataType="string">alternative</Constant>
					<Constant dataType="double">4.587989218587014</Constant>
				</Apply>
			</DerivedField>
			<DerivedField name="tf-idf(lowercase(Text), although)" optype="continuous" dataType="double">
				<Apply function="tf-idf(lowercase(Text))">
					<FieldRef field="lowercase(Text)"/>
					<Constant dataType="string">although</Constant>
					<Constant dataType="double">4.305697994770109</Constant>
				</Apply>
			</DerivedField>
			<DerivedField name="tf-idf(lowercase(Text), among)" optype="continuous" dataType="double">
				<Apply function="tf-idf(lowercase(Text))">
					<FieldRef field="lowercase(Text)"/>
					<Constant dataType="string">among</Constant>
					<Constant dataType="double">3.6316509855835832</Constant>
				</Apply>
			</DerivedField>
			<DerivedField name="tf-idf(lowercase(Text), amount)" optype="continuous" dataType="double">
				<Apply function="tf-idf(lowercase(Text))">
					<FieldRef field="lowercase(Text)"/>
					<Constant dataType="string">amount</Constant>
					<Constant dataType="double">4.00060088071665</Constant>
				</Apply>
			</DerivedField>
			<DerivedField name="tf-idf(lowercase(Text), amp)" optype="continuous" dataType="double">
				<Apply function="tf-idf(lowercase(Text))">
					<FieldRef field="lowercase(Text)"/>
					<Constant dataType="string">amp</Constant>
					<Constant dataType="double">5.150296798188148</Constant>
				</Apply>
			</DerivedField>
			<DerivedField name="tf-idf(lowercase(Text), analysis)" optype="continuous" dataType="double">
				<Apply function="tf-idf(lowercase(Text))">
					<FieldRef field="lowercase(Text)"/>
					<Constant dataType="string">analysis</Constant>
					<Constant dataType="double">2.5901971107554225</Constant>
				</Apply>
			</DerivedField>
			<DerivedField name="tf-idf(lowercase(Text), analytic)" optype="continuous" dataType="double">
				<Apply function="tf-idf(lowercase(Text))">
					<FieldRef field="lowercase(Text)"/>
					<Constant dataType="string">analytic</Constant>
					<Constant dataType="double">5.04305126783455</Constant>
				</Apply>
			</DerivedField>
			<DerivedField name="tf-idf(lowercase(Text), analyze)" optype="continuous" dataType="double">
				<Apply function="tf-idf(lowercase(Text))">
					<FieldRef field="lowercase(Text)"/>
					<Constant dataType="string">analyze</Constant>
					<Constant dataType="double">3.2780109453400046</Constant>
				</Apply>
			</DerivedField>
			<DerivedField name="tf-idf(lowercase(Text), android)" optype="continuous" dataType="double">
				<Apply function="tf-idf(lowercase(Text))">
					<FieldRef field="lowercase(Text)"/>
					<Constant dataType="string">android</Constant>
					<Constant dataType="double">5.634233521737808</Constant>
				</Apply>
			</DerivedField>
			<DerivedField name="tf-idf(lowercase(Text), answer)" optype="continuous" dataType="double">
				<Apply function="tf-idf(lowercase(Text))">
					<FieldRef field="lowercase(Text)"/>
					<Constant dataType="string">answer</Constant>
					<Constant dataType="double">4.566711820139728</Constant>
				</Apply>
			</DerivedField>
			<DerivedField name="tf-idf(lowercase(Text), app)" optype="continuous" dataType="double">
				<Apply function="tf-idf(lowercase(Text))">
					<FieldRef field="lowercase(Text)"/>
					<Constant dataType="string">app</Constant>
					<Constant dataType="double">5.07753744390572</Constant>
				</Apply>
			</DerivedField>
			<DerivedField name="tf-idf(lowercase(Text), application)" optype="continuous" dataType="double">
				<Apply function="tf-idf(lowercase(Text))">
					<FieldRef field="lowercase(Text)"/>
					<Constant dataType="string">application</Constant>
					<Constant dataType="double">2.434311704753281</Constant>
				</Apply>
			</DerivedField>
			<DerivedField name="tf-idf(lowercase(Text), apply)" optype="continuous" dataType="double">
				<Apply function="tf-idf(lowercase(Text))">
					<FieldRef field="lowercase(Text)"/>
					<Constant dataType="string">apply</Constant>
					<Constant dataType="double">3.1656152732147027</Constant>
				</Apply>
			</DerivedField>
			<DerivedField name="tf-idf(lowercase(Text), approach)" optype="continuous" dataType="double">
				<Apply function="tf-idf(lowercase(Text))">
					<FieldRef field="lowercase(Text)"/>
					<Constant dataType="string">approach</Constant>
					<Constant dataType="double">2.357473922584399</Constant>
				</Apply>
			</DerivedField>
			<DerivedField name="tf-idf(lowercase(Text), appropriate)" optype="continuous" dataType="double">
				<Apply function="tf-idf(lowercase(Text))">
					<FieldRef field="lowercase(Text)"/>
					<Constant dataType="string">appropriate</Constant>
					<Constant dataType="double">4.701748103943672</Constant>
				</Apply>
			</DerivedField>
			<DerivedField name="tf-idf(lowercase(Text), approximate)" optype="continuous" dataType="double">
				<Apply function="tf-idf(lowercase(Text))">
					<FieldRef field="lowercase(Text)"/>
					<Constant dataType="string">approximate</Constant>
					<Constant dataType="double">4.539028391391312</Constant>
				</Apply>
			</DerivedField>
			<DerivedField name="tf-idf(lowercase(Text), approximation)" optype="continuous" dataType="double">
				<Apply function="tf-idf(lowercase(Text))">
					<FieldRef field="lowercase(Text)"/>
					<Constant dataType="string">approximation</Constant>
					<Constant dataType="double">4.552774312295947</Constant>
				</Apply>
			</DerivedField>
			<DerivedField name="tf-idf(lowercase(Text), architecture)" optype="continuous" dataType="double">
				<Apply function="tf-idf(lowercase(Text))">
					<FieldRef field="lowercase(Text)"/>
					<Constant dataType="string">architecture</Constant>
					<Constant dataType="double">3.322506668785667</Constant>
				</Apply>
			</DerivedField>
			<DerivedField name="tf-idf(lowercase(Text), area)" optype="continuous" dataType="double">
				<Apply function="tf-idf(lowercase(Text))">
					<FieldRef field="lowercase(Text)"/>
					<Constant dataType="string">area</Constant>
					<Constant dataType="double">3.6193305011955426</Constant>
				</Apply>
			</DerivedField>
			<DerivedField name="tf-idf(lowercase(Text), around)" optype="continuous" dataType="double">
				<Apply function="tf-idf(lowercase(Text))">
					<FieldRef field="lowercase(Text)"/>
					<Constant dataType="string">around</Constant>
					<Constant dataType="double">4.620779041410005</Constant>
				</Apply>
			</DerivedField>
			<DerivedField name="tf-idf(lowercase(Text), art)" optype="continuous" dataType="double">
				<Apply function="tf-idf(lowercase(Text))">
					<FieldRef field="lowercase(Text)"/>
					<Constant dataType="string">art</Constant>
					<Constant dataType="double">3.601798022433902</Constant>
				</Apply>
			</DerivedField>
			<DerivedField name="tf-idf(lowercase(Text), article)" optype="continuous" dataType="double">
				<Apply function="tf-idf(lowercase(Text))">
					<FieldRef field="lowercase(Text)"/>
					<Constant dataType="string">article</Constant>
					<Constant dataType="double">3.7453103040561047</Constant>
				</Apply>
			</DerivedField>
			<DerivedField name="tf-idf(lowercase(Text), artificial)" optype="continuous" dataType="double">
				<Apply function="tf-idf(lowercase(Text))">
					<FieldRef field="lowercase(Text)"/>
					<Constant dataType="string">artificial</Constant>
					<Constant dataType="double">4.843922592724214</Constant>
				</Apply>
			</DerivedField>
			<DerivedField name="tf-idf(lowercase(Text), artificial intelligence)" optype="continuous" dataType="double">
				<Apply function="tf-idf(lowercase(Text))">
					<FieldRef field="lowercase(Text)"/>
					<Constant dataType="string">artificial intelligence</Constant>
					<Constant dataType="double">5.113255526507799</Constant>
				</Apply>
			</DerivedField>
			<DerivedField name="tf-idf(lowercase(Text), aspect)" optype="continuous" dataType="double">
				<Apply function="tf-idf(lowercase(Text))">
					<FieldRef field="lowercase(Text)"/>
					<Constant dataType="string">aspect</Constant>
					<Constant dataType="double">4.045414896506443</Constant>
				</Apply>
			</DerivedField>
			<DerivedField name="tf-idf(lowercase(Text), assess)" optype="continuous" dataType="double">
				<Apply function="tf-idf(lowercase(Text))">
					<FieldRef field="lowercase(Text)"/>
					<Constant dataType="string">assess</Constant>
					<Constant dataType="double">4.525468861605679</Constant>
				</Apply>
			</DerivedField>
			<DerivedField name="tf-idf(lowercase(Text), assessment)" optype="continuous" dataType="double">
				<Apply function="tf-idf(lowercase(Text))">
					<FieldRef field="lowercase(Text)"/>
					<Constant dataType="string">assessment</Constant>
					<Constant dataType="double">4.821038298890627</Constant>
				</Apply>
			</DerivedField>
			<DerivedField name="tf-idf(lowercase(Text), associate)" optype="continuous" dataType="double">
				<Apply function="tf-idf(lowercase(Text))">
					<FieldRef field="lowercase(Text)"/>
					<Constant dataType="string">associate</Constant>
					<Constant dataType="double">4.432303619041672</Constant>
				</Apply>
			</DerivedField>
			<DerivedField name="tf-idf(lowercase(Text), assume)" optype="continuous" dataType="double">
				<Apply function="tf-idf(lowercase(Text))">
					<FieldRef field="lowercase(Text)"/>
					<Constant dataType="string">assume</Constant>
					<Constant dataType="double">4.75961548626422</Constant>
				</Apply>
			</DerivedField>
			<DerivedField name="tf-idf(lowercase(Text), assumption)" optype="continuous" dataType="double">
				<Apply function="tf-idf(lowercase(Text))">
					<FieldRef field="lowercase(Text)"/>
					<Constant dataType="string">assumption</Constant>
					<Constant dataType="double">4.776783289886586</Constant>
				</Apply>
			</DerivedField>
			<DerivedField name="tf-idf(lowercase(Text), attack)" optype="continuous" dataType="double">
				<Apply function="tf-idf(lowercase(Text))">
					<FieldRef field="lowercase(Text)"/>
					<Constant dataType="string">attack</Constant>
					<Constant dataType="double">3.8493000175801524</Constant>
				</Apply>
			</DerivedField>
			<DerivedField name="tf-idf(lowercase(Text), attention)" optype="continuous" dataType="double">
				<Apply function="tf-idf(lowercase(Text))">
					<FieldRef field="lowercase(Text)"/>
					<Constant dataType="string">attention</Constant>
					<Constant dataType="double">4.127891118330681</Constant>
				</Apply>
			</DerivedField>
			<DerivedField name="tf-idf(lowercase(Text), attribute)" optype="continuous" dataType="double">
				<Apply function="tf-idf(lowercase(Text))">
					<FieldRef field="lowercase(Text)"/>
					<Constant dataType="string">attribute</Constant>
					<Constant dataType="double">4.925896175683887</Constant>
				</Apply>
			</DerivedField>
			<DerivedField name="tf-idf(lowercase(Text), authentication)" optype="continuous" dataType="double">
				<Apply function="tf-idf(lowercase(Text))">
					<FieldRef field="lowercase(Text)"/>
					<Constant dataType="string">authentication</Constant>
					<Constant dataType="double">5.465610809302015</Constant>
				</Apply>
			</DerivedField>
			<DerivedField name="tf-idf(lowercase(Text), automate)" optype="continuous" dataType="double">
				<Apply function="tf-idf(lowercase(Text))">
					<FieldRef field="lowercase(Text)"/>
					<Constant dataType="string">automate</Constant>
					<Constant dataType="double">4.3991180700560175</Constant>
				</Apply>
			</DerivedField>
			<DerivedField name="tf-idf(lowercase(Text), automatic)" optype="continuous" dataType="double">
				<Apply function="tf-idf(lowercase(Text))">
					<FieldRef field="lowercase(Text)"/>
					<Constant dataType="string">automatic</Constant>
					<Constant dataType="double">4.50877398303351</Constant>
				</Apply>
			</DerivedField>
			<DerivedField name="tf-idf(lowercase(Text), automatically)" optype="continuous" dataType="double">
				<Apply function="tf-idf(lowercase(Text))">
					<FieldRef field="lowercase(Text)"/>
					<Constant dataType="string">automatically</Constant>
					<Constant dataType="double">4.181330080486242</Constant>
				</Apply>
			</DerivedField>
			<DerivedField name="tf-idf(lowercase(Text), autonomous)" optype="continuous" dataType="double">
				<Apply function="tf-idf(lowercase(Text))">
					<FieldRef field="lowercase(Text)"/>
					<Constant dataType="string">autonomous</Constant>
					<Constant dataType="double">5.119334572584181</Constant>
				</Apply>
			</DerivedField>
			<DerivedField name="tf-idf(lowercase(Text), available)" optype="continuous" dataType="double">
				<Apply function="tf-idf(lowercase(Text))">
					<FieldRef field="lowercase(Text)"/>
					<Constant dataType="string">available</Constant>
					<Constant dataType="double">3.6166131082190427</Constant>
				</Apply>
			</DerivedField>
			<DerivedField name="tf-idf(lowercase(Text), average)" optype="continuous" dataType="double">
				<Apply function="tf-idf(lowercase(Text))">
					<FieldRef field="lowercase(Text)"/>
					<Constant dataType="string">average</Constant>
					<Constant dataType="double">4.012625073683452</Constant>
				</Apply>
			</DerivedField>
			<DerivedField name="tf-idf(lowercase(Text), avoid)" optype="continuous" dataType="double">
				<Apply function="tf-idf(lowercase(Text))">
					<FieldRef field="lowercase(Text)"/>
					<Constant dataType="string">avoid</Constant>
					<Constant dataType="double">4.58441139723913</Constant>
				</Apply>
			</DerivedField>
			<DerivedField name="tf-idf(lowercase(Text), aware)" optype="continuous" dataType="double">
				<Apply function="tf-idf(lowercase(Text))">
					<FieldRef field="lowercase(Text)"/>
					<Constant dataType="string">aware</Constant>
					<Constant dataType="double">4.198177651058852</Constant>
				</Apply>
			</DerivedField>
			<DerivedField name="tf-idf(lowercase(Text), awareness)" optype="continuous" dataType="double">
				<Apply function="tf-idf(lowercase(Text))">
					<FieldRef field="lowercase(Text)"/>
					<Constant dataType="string">awareness</Constant>
					<Constant dataType="double">4.982759037578431</Constant>
				</Apply>
			</DerivedField>
			<DerivedField name="tf-idf(lowercase(Text), background)" optype="continuous" dataType="double">
				<Apply function="tf-idf(lowercase(Text))">
					<FieldRef field="lowercase(Text)"/>
					<Constant dataType="string">background</Constant>
					<Constant dataType="double">4.896191021269971</Constant>
				</Apply>
			</DerivedField>
			<DerivedField name="tf-idf(lowercase(Text), bad)" optype="continuous" dataType="double">
				<Apply function="tf-idf(lowercase(Text))">
					<FieldRef field="lowercase(Text)"/>
					<Constant dataType="string">bad</Constant>
					<Constant dataType="double">4.713869464476017</Constant>
				</Apply>
			</DerivedField>
			<DerivedField name="tf-idf(lowercase(Text), balance)" optype="continuous" dataType="double">
				<Apply function="tf-idf(lowercase(Text))">
					<FieldRef field="lowercase(Text)"/>
					<Constant dataType="string">balance</Constant>
					<Constant dataType="double">4.896191021269971</Constant>
				</Apply>
			</DerivedField>
			<DerivedField name="tf-idf(lowercase(Text), bandwidth)" optype="continuous" dataType="double">
				<Apply function="tf-idf(lowercase(Text))">
					<FieldRef field="lowercase(Text)"/>
					<Constant dataType="string">bandwidth</Constant>
					<Constant dataType="double">4.5988001346912295</Constant>
				</Apply>
			</DerivedField>
			<DerivedField name="tf-idf(lowercase(Text), base)" optype="continuous" dataType="double">
				<Apply function="tf-idf(lowercase(Text))">
					<FieldRef field="lowercase(Text)"/>
					<Constant dataType="string">base</Constant>
					<Constant dataType="double">1.8438018146100286</Constant>
				</Apply>
			</DerivedField>
			<DerivedField name="tf-idf(lowercase(Text), based)" optype="continuous" dataType="double">
				<Apply function="tf-idf(lowercase(Text))">
					<FieldRef field="lowercase(Text)"/>
					<Constant dataType="string">based</Constant>
					<Constant dataType="double">3.6044754002046187</Constant>
				</Apply>
			</DerivedField>
			<DerivedField name="tf-idf(lowercase(Text), basic)" optype="continuous" dataType="double">
				<Apply function="tf-idf(lowercase(Text))">
					<FieldRef field="lowercase(Text)"/>
					<Constant dataType="string">basic</Constant>
					<Constant dataType="double">4.5951834942210406</Constant>
				</Apply>
			</DerivedField>
			<DerivedField name="tf-idf(lowercase(Text), basis)" optype="continuous" dataType="double">
				<Apply function="tf-idf(lowercase(Text))">
					<FieldRef field="lowercase(Text)"/>
					<Constant dataType="string">basis</Constant>
					<Constant dataType="double">4.685811511680859</Constant>
				</Apply>
			</DerivedField>
			<DerivedField name="tf-idf(lowercase(Text), become)" optype="continuous" dataType="double">
				<Apply function="tf-idf(lowercase(Text))">
					<FieldRef field="lowercase(Text)"/>
					<Constant dataType="string">become</Constant>
					<Constant dataType="double">3.381868185722788</Constant>
				</Apply>
			</DerivedField>
			<DerivedField name="tf-idf(lowercase(Text), behavior)" optype="continuous" dataType="double">
				<Apply function="tf-idf(lowercase(Text))">
					<FieldRef field="lowercase(Text)"/>
					<Constant dataType="string">behavior</Constant>
					<Constant dataType="double">3.578018830667788</Constant>
				</Apply>
			</DerivedField>
			<DerivedField name="tf-idf(lowercase(Text), benchmark)" optype="continuous" dataType="double">
				<Apply function="tf-idf(lowercase(Text))">
					<FieldRef field="lowercase(Text)"/>
					<Constant dataType="string">benchmark</Constant>
					<Constant dataType="double">4.450880004614607</Constant>
				</Apply>
			</DerivedField>
			<DerivedField name="tf-idf(lowercase(Text), benefit)" optype="continuous" dataType="double">
				<Apply function="tf-idf(lowercase(Text))">
					<FieldRef field="lowercase(Text)"/>
					<Constant dataType="string">benefit</Constant>
					<Constant dataType="double">3.871811790752369</Constant>
				</Apply>
			</DerivedField>
			<DerivedField name="tf-idf(lowercase(Text), big)" optype="continuous" dataType="double">
				<Apply function="tf-idf(lowercase(Text))">
					<FieldRef field="lowercase(Text)"/>
					<Constant dataType="string">big</Constant>
					<Constant dataType="double">4.417082625031316</Constant>
				</Apply>
			</DerivedField>
			<DerivedField name="tf-idf(lowercase(Text), big datum)" optype="continuous" dataType="double">
				<Apply function="tf-idf(lowercase(Text))">
					<FieldRef field="lowercase(Text)"/>
					<Constant dataType="string">big datum</Constant>
					<Constant dataType="double">5.0544150264848655</Constant>
				</Apply>
			</DerivedField>
			<DerivedField name="tf-idf(lowercase(Text), binary)" optype="continuous" dataType="double">
				<Apply function="tf-idf(lowercase(Text))">
					<FieldRef field="lowercase(Text)"/>
					<Constant dataType="string">binary</Constant>
					<Constant dataType="double">5.208565706312124</Constant>
				</Apply>
			</DerivedField>
			<DerivedField name="tf-idf(lowercase(Text), bind)" optype="continuous" dataType="double">
				<Apply function="tf-idf(lowercase(Text))">
					<FieldRef field="lowercase(Text)"/>
					<Constant dataType="string">bind</Constant>
					<Constant dataType="double">4.2128478408066465</Constant>
				</Apply>
			</DerivedField>
			<DerivedField name="tf-idf(lowercase(Text), bit)" optype="continuous" dataType="double">
				<Apply function="tf-idf(lowercase(Text))">
					<FieldRef field="lowercase(Text)"/>
					<Constant dataType="string">bit</Constant>
					<Constant dataType="double">4.862614725736367</Constant>
				</Apply>
			</DerivedField>
			<DerivedField name="tf-idf(lowercase(Text), block)" optype="continuous" dataType="double">
				<Apply function="tf-idf(lowercase(Text))">
					<FieldRef field="lowercase(Text)"/>
					<Constant dataType="string">block</Constant>
					<Constant dataType="double">4.53222564406856</Constant>
				</Apply>
			</DerivedField>
			<DerivedField name="tf-idf(lowercase(Text), body)" optype="continuous" dataType="double">
				<Apply function="tf-idf(lowercase(Text))">
					<FieldRef field="lowercase(Text)"/>
					<Constant dataType="string">body</Constant>
					<Constant dataType="double">4.930933969713844</Constant>
				</Apply>
			</DerivedField>
			<DerivedField name="tf-idf(lowercase(Text), bound)" optype="continuous" dataType="double">
				<Apply function="tf-idf(lowercase(Text))">
					<FieldRef field="lowercase(Text)"/>
					<Constant dataType="string">bound</Constant>
					<Constant dataType="double">4.143854969319696</Constant>
				</Apply>
			</DerivedField>
			<DerivedField name="tf-idf(lowercase(Text), bring)" optype="continuous" dataType="double">
				<Apply function="tf-idf(lowercase(Text))">
					<FieldRef field="lowercase(Text)"/>
					<Constant dataType="string">bring</Constant>
					<Constant dataType="double">4.432303619041672</Constant>
				</Apply>
			</DerivedField>
			<DerivedField name="tf-idf(lowercase(Text), build)" optype="continuous" dataType="double">
				<Apply function="tf-idf(lowercase(Text))">
					<FieldRef field="lowercase(Text)"/>
					<Constant dataType="string">build</Constant>
					<Constant dataType="double">3.4134784469913937</Constant>
				</Apply>
			</DerivedField>
			<DerivedField name="tf-idf(lowercase(Text), building)" optype="continuous" dataType="double">
				<Apply function="tf-idf(lowercase(Text))">
					<FieldRef field="lowercase(Text)"/>
					<Constant dataType="string">building</Constant>
					<Constant dataType="double">4.88648220714301</Constant>
				</Apply>
			</DerivedField>
			<DerivedField name="tf-idf(lowercase(Text), business)" optype="continuous" dataType="double">
				<Apply function="tf-idf(lowercase(Text))">
					<FieldRef field="lowercase(Text)"/>
					<Constant dataType="string">business</Constant>
					<Constant dataType="double">4.435375818078642</Constant>
				</Apply>
			</DerivedField>
			<DerivedField name="tf-idf(lowercase(Text), cache)" optype="continuous" dataType="double">
				<Apply function="tf-idf(lowercase(Text))">
					<FieldRef field="lowercase(Text)"/>
					<Constant dataType="string">cache</Constant>
					<Constant dataType="double">4.768162546842679</Constant>
				</Apply>
			</DerivedField>
			<DerivedField name="tf-idf(lowercase(Text), call)" optype="continuous" dataType="double">
				<Apply function="tf-idf(lowercase(Text))">
					<FieldRef field="lowercase(Text)"/>
					<Constant dataType="string">call</Constant>
					<Constant dataType="double">3.385092261594541</Constant>
				</Apply>
			</DerivedField>
			<DerivedField name="tf-idf(lowercase(Text), camera)" optype="continuous" dataType="double">
				<Apply function="tf-idf(lowercase(Text))">
					<FieldRef field="lowercase(Text)"/>
					<Constant dataType="string">camera</Constant>
					<Constant dataType="double">5.195320479562103</Constant>
				</Apply>
			</DerivedField>
			<DerivedField name="tf-idf(lowercase(Text), can)" optype="continuous" dataType="double">
				<Apply function="tf-idf(lowercase(Text))">
					<FieldRef field="lowercase(Text)"/>
					<Constant dataType="string">can</Constant>
					<Constant dataType="double">4.284306804788791</Constant>
				</Apply>
			</DerivedField>
			<DerivedField name="tf-idf(lowercase(Text), can not)" optype="continuous" dataType="double">
				<Apply function="tf-idf(lowercase(Text))">
					<FieldRef field="lowercase(Text)"/>
					<Constant dataType="string">can not</Constant>
					<Constant dataType="double">4.294945202993848</Constant>
				</Apply>
			</DerivedField>
			<DerivedField name="tf-idf(lowercase(Text), capability)" optype="continuous" dataType="double">
				<Apply function="tf-idf(lowercase(Text))">
					<FieldRef field="lowercase(Text)"/>
					<Constant dataType="string">capability</Constant>
					<Constant dataType="double">4.2177861224472295</Constant>
				</Apply>
			</DerivedField>
			<DerivedField name="tf-idf(lowercase(Text), capacity)" optype="continuous" dataType="double">
				<Apply function="tf-idf(lowercase(Text))">
					<FieldRef field="lowercase(Text)"/>
					<Constant dataType="string">capacity</Constant>
					<Constant dataType="double">4.730263274251692</Constant>
				</Apply>
			</DerivedField>
			<DerivedField name="tf-idf(lowercase(Text), capture)" optype="continuous" dataType="double">
				<Apply function="tf-idf(lowercase(Text))">
					<FieldRef field="lowercase(Text)"/>
					<Constant dataType="string">capture</Constant>
					<Constant dataType="double">3.9388051614481845</Constant>
				</Apply>
			</DerivedField>
			<DerivedField name="tf-idf(lowercase(Text), carry)" optype="continuous" dataType="double">
				<Apply function="tf-idf(lowercase(Text))">
					<FieldRef field="lowercase(Text)"/>
					<Constant dataType="string">carry</Constant>
					<Constant dataType="double">4.518757427017693</Constant>
				</Apply>
			</DerivedField>
			<DerivedField name="tf-idf(lowercase(Text), case)" optype="continuous" dataType="double">
				<Apply function="tf-idf(lowercase(Text))">
					<FieldRef field="lowercase(Text)"/>
					<Constant dataType="string">case</Constant>
					<Constant dataType="double">2.9474972935210113</Constant>
				</Apply>
			</DerivedField>
			<DerivedField name="tf-idf(lowercase(Text), case study)" optype="continuous" dataType="double">
				<Apply function="tf-idf(lowercase(Text))">
					<FieldRef field="lowercase(Text)"/>
					<Constant dataType="string">case study</Constant>
					<Constant dataType="double">4.2202644384616965</Constant>
				</Apply>
			</DerivedField>
			<DerivedField name="tf-idf(lowercase(Text), cause)" optype="continuous" dataType="double">
				<Apply function="tf-idf(lowercase(Text))">
					<FieldRef field="lowercase(Text)"/>
					<Constant dataType="string">cause</Constant>
					<Constant dataType="double">4.066468305704275</Constant>
				</Apply>
			</DerivedField>
			<DerivedField name="tf-idf(lowercase(Text), center)" optype="continuous" dataType="double">
				<Apply function="tf-idf(lowercase(Text))">
					<FieldRef field="lowercase(Text)"/>
					<Constant dataType="string">center</Constant>
					<Constant dataType="double">4.763879885050677</Constant>
				</Apply>
			</DerivedField>
			<DerivedField name="tf-idf(lowercase(Text), certain)" optype="continuous" dataType="double">
				<Apply function="tf-idf(lowercase(Text))">
					<FieldRef field="lowercase(Text)"/>
					<Constant dataType="string">certain</Constant>
					<Constant dataType="double">4.313839152353809</Constant>
				</Apply>
			</DerivedField>
			<DerivedField name="tf-idf(lowercase(Text), chain)" optype="continuous" dataType="double">
				<Apply function="tf-idf(lowercase(Text))">
					<FieldRef field="lowercase(Text)"/>
					<Constant dataType="string">chain</Constant>
					<Constant dataType="double">5.048717005370228</Constant>
				</Apply>
			</DerivedField>
			<DerivedField name="tf-idf(lowercase(Text), challenge)" optype="continuous" dataType="double">
				<Apply function="tf-idf(lowercase(Text))">
					<FieldRef field="lowercase(Text)"/>
					<Constant dataType="string">challenge</Constant>
					<Constant dataType="double">2.8247078931893412</Constant>
				</Apply>
			</DerivedField>
			<DerivedField name="tf-idf(lowercase(Text), change)" optype="continuous" dataType="double">
				<Apply function="tf-idf(lowercase(Text))">
					<FieldRef field="lowercase(Text)"/>
					<Constant dataType="string">change</Constant>
					<Constant dataType="double">3.391571765905527</Constant>
				</Apply>
			</DerivedField>
			<DerivedField name="tf-idf(lowercase(Text), channel)" optype="continuous" dataType="double">
				<Apply function="tf-idf(lowercase(Text))">
					<FieldRef field="lowercase(Text)"/>
					<Constant dataType="string">channel</Constant>
					<Constant dataType="double">4.411058510427935</Constant>
				</Apply>
			</DerivedField>
			<DerivedField name="tf-idf(lowercase(Text), characteristic)" optype="continuous" dataType="double">
				<Apply function="tf-idf(lowercase(Text))">
					<FieldRef field="lowercase(Text)"/>
					<Constant dataType="string">characteristic</Constant>
					<Constant dataType="double">3.9887195528298975</Constant>
				</Apply>
			</DerivedField>
			<DerivedField name="tf-idf(lowercase(Text), characterize)" optype="continuous" dataType="double">
				<Apply function="tf-idf(lowercase(Text))">
					<FieldRef field="lowercase(Text)"/>
					<Constant dataType="string">characterize</Constant>
					<Constant dataType="double">4.577293929470265</Constant>
				</Apply>
			</DerivedField>
			<DerivedField name="tf-idf(lowercase(Text), check)" optype="continuous" dataType="double">
				<Apply function="tf-idf(lowercase(Text))">
					<FieldRef field="lowercase(Text)"/>
					<Constant dataType="string">check</Constant>
					<Constant dataType="double">4.915896092349303</Constant>
				</Apply>
			</DerivedField>
			<DerivedField name="tf-idf(lowercase(Text), child)" optype="continuous" dataType="double">
				<Apply function="tf-idf(lowercase(Text))">
					<FieldRef field="lowercase(Text)"/>
					<Constant dataType="string">child</Constant>
					<Constant dataType="double">5.594228187124108</Constant>
				</Apply>
			</DerivedField>
			<DerivedField name="tf-idf(lowercase(Text), chip)" optype="continuous" dataType="double">
				<Apply function="tf-idf(lowercase(Text))">
					<FieldRef field="lowercase(Text)"/>
					<Constant dataType="string">chip</Constant>
					<Constant dataType="double">4.862614725736367</Constant>
				</Apply>
			</DerivedField>
			<DerivedField name="tf-idf(lowercase(Text), choose)" optype="continuous" dataType="double">
				<Apply function="tf-idf(lowercase(Text))">
					<FieldRef field="lowercase(Text)"/>
					<Constant dataType="string">choose</Constant>
					<Constant dataType="double">4.746930326736905</Constant>
				</Apply>
			</DerivedField>
			<DerivedField name="tf-idf(lowercase(Text), circuit)" optype="continuous" dataType="double">
				<Apply function="tf-idf(lowercase(Text))">
					<FieldRef field="lowercase(Text)"/>
					<Constant dataType="string">circuit</Constant>
					<Constant dataType="double">5.09523702100512</Constant>
				</Apply>
			</DerivedField>
			<DerivedField name="tf-idf(lowercase(Text), city)" optype="continuous" dataType="double">
				<Apply function="tf-idf(lowercase(Text))">
					<FieldRef field="lowercase(Text)"/>
					<Constant dataType="string">city</Constant>
					<Constant dataType="double">5.263373942807118</Constant>
				</Apply>
			</DerivedField>
			<DerivedField name="tf-idf(lowercase(Text), class)" optype="continuous" dataType="double">
				<Apply function="tf-idf(lowercase(Text))">
					<FieldRef field="lowercase(Text)"/>
					<Constant dataType="string">class</Constant>
					<Constant dataType="double">3.8788416966806274</Constant>
				</Apply>
			</DerivedField>
			<DerivedField name="tf-idf(lowercase(Text), classification)" optype="continuous" dataType="double">
				<Apply function="tf-idf(lowercase(Text))">
					<FieldRef field="lowercase(Text)"/>
					<Constant dataType="string">classification</Constant>
					<Constant dataType="double">4.167111831483963</Constant>
				</Apply>
			</DerivedField>
			<DerivedField name="tf-idf(lowercase(Text), classifier)" optype="continuous" dataType="double">
				<Apply function="tf-idf(lowercase(Text))">
					<FieldRef field="lowercase(Text)"/>
					<Constant dataType="string">classifier</Constant>
					<Constant dataType="double">4.901081006564163</Constant>
				</Apply>
			</DerivedField>
			<DerivedField name="tf-idf(lowercase(Text), client)" optype="continuous" dataType="double">
				<Apply function="tf-idf(lowercase(Text))">
					<FieldRef field="lowercase(Text)"/>
					<Constant dataType="string">client</Constant>
					<Constant dataType="double">5.031815194567624</Constant>
				</Apply>
			</DerivedField>
			<DerivedField name="tf-idf(lowercase(Text), close)" optype="continuous" dataType="double">
				<Apply function="tf-idf(lowercase(Text))">
					<FieldRef field="lowercase(Text)"/>
					<Constant dataType="string">close</Constant>
					<Constant dataType="double">4.396155104925361</Constant>
				</Apply>
			</DerivedField>
			<DerivedField name="tf-idf(lowercase(Text), cloud)" optype="continuous" dataType="double">
				<Apply function="tf-idf(lowercase(Text))">
					<FieldRef field="lowercase(Text)"/>
					<Constant dataType="string">cloud</Constant>
					<Constant dataType="double">4.355569824810282</Constant>
				</Apply>
			</DerivedField>
			<DerivedField name="tf-idf(lowercase(Text), cluster)" optype="continuous" dataType="double">
				<Apply function="tf-idf(lowercase(Text))">
					<FieldRef field="lowercase(Text)"/>
					<Constant dataType="string">cluster</Constant>
					<Constant dataType="double">4.81202922894826</Constant>
				</Apply>
			</DerivedField>
			<DerivedField name="tf-idf(lowercase(Text), co)" optype="continuous" dataType="double">
				<Apply function="tf-idf(lowercase(Text))">
					<FieldRef field="lowercase(Text)"/>
					<Constant dataType="string">co</Constant>
					<Constant dataType="double">4.689771912896957</Constant>
				</Apply>
			</DerivedField>
			<DerivedField name="tf-idf(lowercase(Text), code)" optype="continuous" dataType="double">
				<Apply function="tf-idf(lowercase(Text))">
					<FieldRef field="lowercase(Text)"/>
					<Constant dataType="string">code</Constant>
					<Constant dataType="double">3.645520833447734</Constant>
				</Apply>
			</DerivedField>
			<DerivedField name="tf-idf(lowercase(Text), cognitive)" optype="continuous" dataType="double">
				<Apply function="tf-idf(lowercase(Text))">
					<FieldRef field="lowercase(Text)"/>
					<Constant dataType="string">cognitive</Constant>
					<Constant dataType="double">5.228768413629643</Constant>
				</Apply>
			</DerivedField>
			<DerivedField name="tf-idf(lowercase(Text), collaboration)" optype="continuous" dataType="double">
				<Apply function="tf-idf(lowercase(Text))">
					<FieldRef field="lowercase(Text)"/>
					<Constant dataType="string">collaboration</Constant>
					<Constant dataType="double">4.67012491551316</Constant>
				</Apply>
			</DerivedField>
			<DerivedField name="tf-idf(lowercase(Text), collaborative)" optype="continuous" dataType="double">
				<Apply function="tf-idf(lowercase(Text))">
					<FieldRef field="lowercase(Text)"/>
					<Constant dataType="string">collaborative</Constant>
					<Constant dataType="double">4.58441139723913</Constant>
				</Apply>
			</DerivedField>
			<DerivedField name="tf-idf(lowercase(Text), collect)" optype="continuous" dataType="double">
				<Apply function="tf-idf(lowercase(Text))">
					<FieldRef field="lowercase(Text)"/>
					<Constant dataType="string">collect</Constant>
					<Constant dataType="double">3.975034099744643</Constant>
				</Apply>
			</DerivedField>
			<DerivedField name="tf-idf(lowercase(Text), collection)" optype="continuous" dataType="double">
				<Apply function="tf-idf(lowercase(Text))">
					<FieldRef field="lowercase(Text)"/>
					<Constant dataType="string">collection</Constant>
					<Constant dataType="double">4.435375818078642</Constant>
				</Apply>
			</DerivedField>
			<DerivedField name="tf-idf(lowercase(Text), combination)" optype="continuous" dataType="double">
				<Apply function="tf-idf(lowercase(Text))">
					<FieldRef field="lowercase(Text)"/>
					<Constant dataType="string">combination</Constant>
					<Constant dataType="double">4.435375818078642</Constant>
				</Apply>
			</DerivedField>
			<DerivedField name="tf-idf(lowercase(Text), combine)" optype="continuous" dataType="double">
				<Apply function="tf-idf(lowercase(Text))">
					<FieldRef field="lowercase(Text)"/>
					<Constant dataType="string">combine</Constant>
					<Constant dataType="double">3.669550258174569</Constant>
				</Apply>
			</DerivedField>
			<DerivedField name="tf-idf(lowercase(Text), come)" optype="continuous" dataType="double">
				<Apply function="tf-idf(lowercase(Text))">
					<FieldRef field="lowercase(Text)"/>
					<Constant dataType="string">come</Constant>
					<Constant dataType="double">4.5988001346912295</Constant>
				</Apply>
			</DerivedField>
			<DerivedField name="tf-idf(lowercase(Text), commerce)" optype="continuous" dataType="double">
				<Apply function="tf-idf(lowercase(Text))">
					<FieldRef field="lowercase(Text)"/>
					<Constant dataType="string">commerce</Constant>
					<Constant dataType="double">5.382919093456901</Constant>
				</Apply>
			</DerivedField>
			<DerivedField name="tf-idf(lowercase(Text), common)" optype="continuous" dataType="double">
				<Apply function="tf-idf(lowercase(Text))">
					<FieldRef field="lowercase(Text)"/>
					<Constant dataType="string">common</Constant>
					<Constant dataType="double">3.9111025588988486</Constant>
				</Apply>
			</DerivedField>
			<DerivedField name="tf-idf(lowercase(Text), communication)" optype="continuous" dataType="double">
				<Apply function="tf-idf(lowercase(Text))">
					<FieldRef field="lowercase(Text)"/>
					<Constant dataType="string">communication</Constant>
					<Constant dataType="double">3.342936388517613</Constant>
				</Apply>
			</DerivedField>
			<DerivedField name="tf-idf(lowercase(Text), community)" optype="continuous" dataType="double">
				<Apply function="tf-idf(lowercase(Text))">
					<FieldRef field="lowercase(Text)"/>
					<Constant dataType="string">community</Constant>
					<Constant dataType="double">3.8493000175801524</Constant>
				</Apply>
			</DerivedField>
			<DerivedField name="tf-idf(lowercase(Text), company)" optype="continuous" dataType="double">
				<Apply function="tf-idf(lowercase(Text))">
					<FieldRef field="lowercase(Text)"/>
					<Constant dataType="string">company</Constant>
					<Constant dataType="double">4.730263274251692</Constant>
				</Apply>
			</DerivedField>
			<DerivedField name="tf-idf(lowercase(Text), compare)" optype="continuous" dataType="double">
				<Apply function="tf-idf(lowercase(Text))">
					<FieldRef field="lowercase(Text)"/>
					<Constant dataType="string">compare</Constant>
					<Constant dataType="double">3.02626677919258</Constant>
				</Apply>
			</DerivedField>
			<DerivedField name="tf-idf(lowercase(Text), comparison)" optype="continuous" dataType="double">
				<Apply function="tf-idf(lowercase(Text))">
					<FieldRef field="lowercase(Text)"/>
					<Constant dataType="string">comparison</Constant>
					<Constant dataType="double">4.393200893027929</Constant>
				</Apply>
			</DerivedField>
			<DerivedField name="tf-idf(lowercase(Text), complete)" optype="continuous" dataType="double">
				<Apply function="tf-idf(lowercase(Text))">
					<FieldRef field="lowercase(Text)"/>
					<Constant dataType="string">complete</Constant>
					<Constant dataType="double">4.279029747687948</Constant>
				</Apply>
			</DerivedField>
			<DerivedField name="tf-idf(lowercase(Text), complex)" optype="continuous" dataType="double">
				<Apply function="tf-idf(lowercase(Text))">
					<FieldRef field="lowercase(Text)"/>
					<Constant dataType="string">complex</Constant>
					<Constant dataType="double">3.688323372682494</Constant>
				</Apply>
			</DerivedField>
			<DerivedField name="tf-idf(lowercase(Text), complexity)" optype="continuous" dataType="double">
				<Apply function="tf-idf(lowercase(Text))">
					<FieldRef field="lowercase(Text)"/>
					<Constant dataType="string">complexity</Constant>
					<Constant dataType="double">3.5484346795625052</Constant>
				</Apply>
			</DerivedField>
			<DerivedField name="tf-idf(lowercase(Text), component)" optype="continuous" dataType="double">
				<Apply function="tf-idf(lowercase(Text))">
					<FieldRef field="lowercase(Text)"/>
					<Constant dataType="string">component</Constant>
					<Constant dataType="double">3.857898522835384</Constant>
				</Apply>
			</DerivedField>
			<DerivedField name="tf-idf(lowercase(Text), comprehensive)" optype="continuous" dataType="double">
				<Apply function="tf-idf(lowercase(Text))">
					<FieldRef field="lowercase(Text)"/>
					<Constant dataType="string">comprehensive</Constant>
					<Constant dataType="double">4.6585193693928515</Constant>
				</Apply>
			</DerivedField>
			<DerivedField name="tf-idf(lowercase(Text), computation)" optype="continuous" dataType="double">
				<Apply function="tf-idf(lowercase(Text))">
					<FieldRef field="lowercase(Text)"/>
					<Constant dataType="string">computation</Constant>
					<Constant dataType="double">4.049590267916924</Constant>
				</Apply>
			</DerivedField>
			<DerivedField name="tf-idf(lowercase(Text), computational)" optype="continuous" dataType="double">
				<Apply function="tf-idf(lowercase(Text))">
					<FieldRef field="lowercase(Text)"/>
					<Constant dataType="string">computational</Constant>
					<Constant dataType="double">4.026838510933507</Constant>
				</Apply>
			</DerivedField>
			<DerivedField name="tf-idf(lowercase(Text), compute)" optype="continuous" dataType="double">
				<Apply function="tf-idf(lowercase(Text))">
					<FieldRef field="lowercase(Text)"/>
					<Constant dataType="string">compute</Constant>
					<Constant dataType="double">3.574110030902735</Constant>
				</Apply>
			</DerivedField>
			<DerivedField name="tf-idf(lowercase(Text), computer)" optype="continuous" dataType="double">
				<Apply function="tf-idf(lowercase(Text))">
					<FieldRef field="lowercase(Text)"/>
					<Constant dataType="string">computer</Constant>
					<Constant dataType="double">3.622055298521728</Constant>
				</Apply>
			</DerivedField>
			<DerivedField name="tf-idf(lowercase(Text), computing)" optype="continuous" dataType="double">
				<Apply function="tf-idf(lowercase(Text))">
					<FieldRef field="lowercase(Text)"/>
					<Constant dataType="string">computing</Constant>
					<Constant dataType="double">3.822271345192233</Constant>
				</Apply>
			</DerivedField>
			<DerivedField name="tf-idf(lowercase(Text), concept)" optype="continuous" dataType="double">
				<Apply function="tf-idf(lowercase(Text))">
					<FieldRef field="lowercase(Text)"/>
					<Constant dataType="string">concept</Constant>
					<Constant dataType="double">3.7766608339401806</Constant>
				</Apply>
			</DerivedField>
			<DerivedField name="tf-idf(lowercase(Text), concern)" optype="continuous" dataType="double">
				<Apply function="tf-idf(lowercase(Text))">
					<FieldRef field="lowercase(Text)"/>
					<Constant dataType="string">concern</Constant>
					<Constant dataType="double">4.1718288213621015</Constant>
				</Apply>
			</DerivedField>
			<DerivedField name="tf-idf(lowercase(Text), condition)" optype="continuous" dataType="double">
				<Apply function="tf-idf(lowercase(Text))">
					<FieldRef field="lowercase(Text)"/>
					<Constant dataType="string">condition</Constant>
					<Constant dataType="double">4.101103802367032</Constant>
				</Apply>
			</DerivedField>
			<DerivedField name="tf-idf(lowercase(Text), conduct)" optype="continuous" dataType="double">
				<Apply function="tf-idf(lowercase(Text))">
					<FieldRef field="lowercase(Text)"/>
					<Constant dataType="string">conduct</Constant>
					<Constant dataType="double">3.5098966601500803</Constant>
				</Apply>
			</DerivedField>
			<DerivedField name="tf-idf(lowercase(Text), configuration)" optype="continuous" dataType="double">
				<Apply function="tf-idf(lowercase(Text))">
					<FieldRef field="lowercase(Text)"/>
					<Constant dataType="string">configuration</Constant>
					<Constant dataType="double">4.67012491551316</Constant>
				</Apply>
			</DerivedField>
			<DerivedField name="tf-idf(lowercase(Text), congestion)" optype="continuous" dataType="double">
				<Apply function="tf-idf(lowercase(Text))">
					<FieldRef field="lowercase(Text)"/>
					<Constant dataType="string">congestion</Constant>
					<Constant dataType="double">5.359388596046707</Constant>
				</Apply>
			</DerivedField>
			<DerivedField name="tf-idf(lowercase(Text), connect)" optype="continuous" dataType="double">
				<Apply function="tf-idf(lowercase(Text))">
					<FieldRef field="lowercase(Text)"/>
					<Constant dataType="string">connect</Constant>
					<Constant dataType="double">4.324798166143529</Constant>
				</Apply>
			</DerivedField>
			<DerivedField name="tf-idf(lowercase(Text), connection)" optype="continuous" dataType="double">
				<Apply function="tf-idf(lowercase(Text))">
					<FieldRef field="lowercase(Text)"/>
					<Constant dataType="string">connection</Constant>
					<Constant dataType="double">4.485859723510634</Constant>
				</Apply>
			</DerivedField>
			<DerivedField name="tf-idf(lowercase(Text), connectivity)" optype="continuous" dataType="double">
				<Apply function="tf-idf(lowercase(Text))">
					<FieldRef field="lowercase(Text)"/>
					<Constant dataType="string">connectivity</Constant>
					<Constant dataType="double">5.1440271851745525</Constant>
				</Apply>
			</DerivedField>
			<DerivedField name="tf-idf(lowercase(Text), consider)" optype="continuous" dataType="double">
				<Apply function="tf-idf(lowercase(Text))">
					<FieldRef field="lowercase(Text)"/>
					<Constant dataType="string">consider</Constant>
					<Constant dataType="double">3.1324630658978023</Constant>
				</Apply>
			</DerivedField>
			<DerivedField name="tf-idf(lowercase(Text), consist)" optype="continuous" dataType="double">
				<Apply function="tf-idf(lowercase(Text))">
					<FieldRef field="lowercase(Text)"/>
					<Constant dataType="string">consist</Constant>
					<Constant dataType="double">4.375656583377019</Constant>
				</Apply>
			</DerivedField>
			<DerivedField name="tf-idf(lowercase(Text), constant)" optype="continuous" dataType="double">
				<Apply function="tf-idf(lowercase(Text))">
					<FieldRef field="lowercase(Text)"/>
					<Constant dataType="string">constant</Constant>
					<Constant dataType="double">4.498889223800967</Constant>
				</Apply>
			</DerivedField>
			<DerivedField name="tf-idf(lowercase(Text), constraint)" optype="continuous" dataType="double">
				<Apply function="tf-idf(lowercase(Text))">
					<FieldRef field="lowercase(Text)"/>
					<Constant dataType="string">constraint</Constant>
					<Constant dataType="double">3.9867529838578566</Constant>
				</Apply>
			</DerivedField>
			<DerivedField name="tf-idf(lowercase(Text), construct)" optype="continuous" dataType="double">
				<Apply function="tf-idf(lowercase(Text))">
					<FieldRef field="lowercase(Text)"/>
					<Constant dataType="string">construct</Constant>
					<Constant dataType="double">4.006594904656861</Constant>
				</Apply>
			</DerivedField>
			<DerivedField name="tf-idf(lowercase(Text), construction)" optype="continuous" dataType="double">
				<Apply function="tf-idf(lowercase(Text))">
					<FieldRef field="lowercase(Text)"/>
					<Constant dataType="string">construction</Constant>
					<Constant dataType="double">4.50877398303351</Constant>
				</Apply>
			</DerivedField>
			<DerivedField name="tf-idf(lowercase(Text), consumer)" optype="continuous" dataType="double">
				<Apply function="tf-idf(lowercase(Text))">
					<FieldRef field="lowercase(Text)"/>
					<Constant dataType="string">consumer</Constant>
					<Constant dataType="double">5.162955195060071</Constant>
				</Apply>
			</DerivedField>
			<DerivedField name="tf-idf(lowercase(Text), consumption)" optype="continuous" dataType="double">
				<Apply function="tf-idf(lowercase(Text))">
					<FieldRef field="lowercase(Text)"/>
					<Constant dataType="string">consumption</Constant>
					<Constant dataType="double">4.313839152353809</Constant>
				</Apply>
			</DerivedField>
			<DerivedField name="tf-idf(lowercase(Text), contain)" optype="continuous" dataType="double">
				<Apply function="tf-idf(lowercase(Text))">
					<FieldRef field="lowercase(Text)"/>
					<Constant dataType="string">contain</Constant>
					<Constant dataType="double">4.195753407447347</Constant>
				</Apply>
			</DerivedField>
			<DerivedField name="tf-idf(lowercase(Text), content)" optype="continuous" dataType="double">
				<Apply function="tf-idf(lowercase(Text))">
					<FieldRef field="lowercase(Text)"/>
					<Constant dataType="string">content</Constant>
					<Constant dataType="double">3.927631860850059</Constant>
				</Apply>
			</DerivedField>
			<DerivedField name="tf-idf(lowercase(Text), context)" optype="continuous" dataType="double">
				<Apply function="tf-idf(lowercase(Text))">
					<FieldRef field="lowercase(Text)"/>
					<Constant dataType="string">context</Constant>
					<Constant dataType="double">3.462268611160826</Constant>
				</Apply>
			</DerivedField>
			<DerivedField name="tf-idf(lowercase(Text), continuous)" optype="continuous" dataType="double">
				<Apply function="tf-idf(lowercase(Text))">
					<FieldRef field="lowercase(Text)"/>
					<Constant dataType="string">continuous</Constant>
					<Constant dataType="double">4.662372938708842</Constant>
				</Apply>
			</DerivedField>
			<DerivedField name="tf-idf(lowercase(Text), contrast)" optype="continuous" dataType="double">
				<Apply function="tf-idf(lowercase(Text))">
					<FieldRef field="lowercase(Text)"/>
					<Constant dataType="string">contrast</Constant>
					<Constant dataType="double">4.697740082546133</Constant>
				</Apply>
			</DerivedField>
			<DerivedField name="tf-idf(lowercase(Text), contribute)" optype="continuous" dataType="double">
				<Apply function="tf-idf(lowercase(Text))">
					<FieldRef field="lowercase(Text)"/>
					<Constant dataType="string">contribute</Constant>
					<Constant dataType="double">4.420108345947853</Constant>
				</Apply>
			</DerivedField>
			<DerivedField name="tf-idf(lowercase(Text), contribution)" optype="continuous" dataType="double">
				<Apply function="tf-idf(lowercase(Text))">
					<FieldRef field="lowercase(Text)"/>
					<Constant dataType="string">contribution</Constant>
					<Constant dataType="double">4.3991180700560175</Constant>
				</Apply>
			</DerivedField>
			<DerivedField name="tf-idf(lowercase(Text), control)" optype="continuous" dataType="double">
				<Apply function="tf-idf(lowercase(Text))">
					<FieldRef field="lowercase(Text)"/>
					<Constant dataType="string">control</Constant>
					<Constant dataType="double">3.0891024902828015</Constant>
				</Apply>
			</DerivedField>
			<DerivedField name="tf-idf(lowercase(Text), controller)" optype="continuous" dataType="double">
				<Apply function="tf-idf(lowercase(Text))">
					<FieldRef field="lowercase(Text)"/>
					<Constant dataType="string">controller</Constant>
					<Constant dataType="double">4.951342841345051</Constant>
				</Apply>
			</DerivedField>
			<DerivedField name="tf-idf(lowercase(Text), conventional)" optype="continuous" dataType="double">
				<Apply function="tf-idf(lowercase(Text))">
					<FieldRef field="lowercase(Text)"/>
					<Constant dataType="string">conventional</Constant>
					<Constant dataType="double">4.825573454056018</Constant>
				</Apply>
			</DerivedField>
			<DerivedField name="tf-idf(lowercase(Text), convolutional)" optype="continuous" dataType="double">
				<Apply function="tf-idf(lowercase(Text))">
					<FieldRef field="lowercase(Text)"/>
					<Constant dataType="string">convolutional</Constant>
					<Constant dataType="double">5.125450799601617</Constant>
				</Apply>
			</DerivedField>
			<DerivedField name="tf-idf(lowercase(Text), core)" optype="continuous" dataType="double">
				<Apply function="tf-idf(lowercase(Text))">
					<FieldRef field="lowercase(Text)"/>
					<Constant dataType="string">core</Constant>
					<Constant dataType="double">4.0750153662827335</Constant>
				</Apply>
			</DerivedField>
			<DerivedField name="tf-idf(lowercase(Text), correlation)" optype="continuous" dataType="double">
				<Apply function="tf-idf(lowercase(Text))">
					<FieldRef field="lowercase(Text)"/>
					<Constant dataType="string">correlation</Constant>
					<Constant dataType="double">4.83930364686792</Constant>
				</Apply>
			</DerivedField>
			<DerivedField name="tf-idf(lowercase(Text), correspond)" optype="continuous" dataType="double">
				<Apply function="tf-idf(lowercase(Text))">
					<FieldRef field="lowercase(Text)"/>
					<Constant dataType="string">correspond</Constant>
					<Constant dataType="double">4.602429902741807</Constant>
				</Apply>
			</DerivedField>
			<DerivedField name="tf-idf(lowercase(Text), cost)" optype="continuous" dataType="double">
				<Apply function="tf-idf(lowercase(Text))">
					<FieldRef field="lowercase(Text)"/>
					<Constant dataType="string">cost</Constant>
					<Constant dataType="double">3.3829417231313124</Constant>
				</Apply>
			</DerivedField>
			<DerivedField name="tf-idf(lowercase(Text), could)" optype="continuous" dataType="double">
				<Apply function="tf-idf(lowercase(Text))">
					<FieldRef field="lowercase(Text)"/>
					<Constant dataType="string">could</Constant>
					<Constant dataType="double">4.070732704490732</Constant>
				</Apply>
			</DerivedField>
			<DerivedField name="tf-idf(lowercase(Text), country)" optype="continuous" dataType="double">
				<Apply function="tf-idf(lowercase(Text))">
					<FieldRef field="lowercase(Text)"/>
					<Constant dataType="string">country</Constant>
					<Constant dataType="double">5.004265242799394</Constant>
				</Apply>
			</DerivedField>
			<DerivedField name="tf-idf(lowercase(Text), course)" optype="continuous" dataType="double">
				<Apply function="tf-idf(lowercase(Text))">
					<FieldRef field="lowercase(Text)"/>
					<Constant dataType="string">course</Constant>
					<Constant dataType="double">4.789855371453939</Constant>
				</Apply>
			</DerivedField>
			<DerivedField name="tf-idf(lowercase(Text), cover)" optype="continuous" dataType="double">
				<Apply function="tf-idf(lowercase(Text))">
					<FieldRef field="lowercase(Text)"/>
					<Constant dataType="string">cover</Constant>
					<Constant dataType="double">4.67012491551316</Constant>
				</Apply>
			</DerivedField>
			<DerivedField name="tf-idf(lowercase(Text), coverage)" optype="continuous" dataType="double">
				<Apply function="tf-idf(lowercase(Text))">
					<FieldRef field="lowercase(Text)"/>
					<Constant dataType="string">coverage</Constant>
					<Constant dataType="double">5.228768413629643</Constant>
				</Apply>
			</DerivedField>
			<DerivedField name="tf-idf(lowercase(Text), cps)" optype="continuous" dataType="double">
				<Apply function="tf-idf(lowercase(Text))">
					<FieldRef field="lowercase(Text)"/>
					<Constant dataType="string">cps</Constant>
					<Constant dataType="double">5.3908872631060785</Constant>
				</Apply>
			</DerivedField>
			<DerivedField name="tf-idf(lowercase(Text), create)" optype="continuous" dataType="double">
				<Apply function="tf-idf(lowercase(Text))">
					<FieldRef field="lowercase(Text)"/>
					<Constant dataType="string">create</Constant>
					<Constant dataType="double">3.5898377469709306</Constant>
				</Apply>
			</DerivedField>
			<DerivedField name="tf-idf(lowercase(Text), critical)" optype="continuous" dataType="double">
				<Apply function="tf-idf(lowercase(Text))">
					<FieldRef field="lowercase(Text)"/>
					<Constant dataType="string">critical</Constant>
					<Constant dataType="double">3.8441761805802828</Constant>
				</Apply>
			</DerivedField>
			<DerivedField name="tf-idf(lowercase(Text), cross)" optype="continuous" dataType="double">
				<Apply function="tf-idf(lowercase(Text))">
					<FieldRef field="lowercase(Text)"/>
					<Constant dataType="string">cross</Constant>
					<Constant dataType="double">4.620779041410005</Constant>
				</Apply>
			</DerivedField>
			<DerivedField name="tf-idf(lowercase(Text), crowd)" optype="continuous" dataType="double">
				<Apply function="tf-idf(lowercase(Text))">
					<FieldRef field="lowercase(Text)"/>
					<Constant dataType="string">crowd</Constant>
					<Constant dataType="double">5.644490021904996</Constant>
				</Apply>
			</DerivedField>
			<DerivedField name="tf-idf(lowercase(Text), current)" optype="continuous" dataType="double">
				<Apply function="tf-idf(lowercase(Text))">
					<FieldRef field="lowercase(Text)"/>
					<Constant dataType="string">current</Constant>
					<Constant dataType="double">3.502606226887401</Constant>
				</Apply>
			</DerivedField>
			<DerivedField name="tf-idf(lowercase(Text), currently)" optype="continuous" dataType="double">
				<Apply function="tf-idf(lowercase(Text))">
					<FieldRef field="lowercase(Text)"/>
					<Constant dataType="string">currently</Constant>
					<Constant dataType="double">4.5951834942210406</Constant>
				</Apply>
			</DerivedField>
			<DerivedField name="tf-idf(lowercase(Text), customer)" optype="continuous" dataType="double">
				<Apply function="tf-idf(lowercase(Text))">
					<FieldRef field="lowercase(Text)"/>
					<Constant dataType="string">customer</Constant>
					<Constant dataType="double">4.946201441844632</Constant>
				</Apply>
			</DerivedField>
			<DerivedField name="tf-idf(lowercase(Text), cyber)" optype="continuous" dataType="double">
				<Apply function="tf-idf(lowercase(Text))">
					<FieldRef field="lowercase(Text)"/>
					<Constant dataType="string">cyber</Constant>
					<Constant dataType="double">4.375656583377019</Constant>
				</Apply>
			</DerivedField>
			<DerivedField name="tf-idf(lowercase(Text), cyber physical)" optype="continuous" dataType="double">
				<Apply function="tf-idf(lowercase(Text))">
					<FieldRef field="lowercase(Text)"/>
					<Constant dataType="string">cyber physical</Constant>
					<Constant dataType="double">4.689771912896957</Constant>
				</Apply>
			</DerivedField>
			<DerivedField name="tf-idf(lowercase(Text), cycle)" optype="continuous" dataType="double">
				<Apply function="tf-idf(lowercase(Text))">
					<FieldRef field="lowercase(Text)"/>
					<Constant dataType="string">cycle</Constant>
					<Constant dataType="double">4.713869464476017</Constant>
				</Apply>
			</DerivedField>
			<DerivedField name="tf-idf(lowercase(Text), data)" optype="continuous" dataType="double">
				<Apply function="tf-idf(lowercase(Text))">
					<FieldRef field="lowercase(Text)"/>
					<Constant dataType="string">data</Constant>
					<Constant dataType="double">2.995905320846065</Constant>
				</Apply>
			</DerivedField>
			<DerivedField name="tf-idf(lowercase(Text), database)" optype="continuous" dataType="double">
				<Apply function="tf-idf(lowercase(Text))">
					<FieldRef field="lowercase(Text)"/>
					<Constant dataType="string">database</Constant>
					<Constant dataType="double">4.378559343034981</Constant>
				</Apply>
			</DerivedField>
			<DerivedField name="tf-idf(lowercase(Text), dataset)" optype="continuous" dataType="double">
				<Apply function="tf-idf(lowercase(Text))">
					<FieldRef field="lowercase(Text)"/>
					<Constant dataType="string">dataset</Constant>
					<Constant dataType="double">3.5938086324004233</Constant>
				</Apply>
			</DerivedField>
			<DerivedField name="tf-idf(lowercase(Text), datum)" optype="continuous" dataType="double">
				<Apply function="tf-idf(lowercase(Text))">
					<FieldRef field="lowercase(Text)"/>
					<Constant dataType="string">datum</Constant>
					<Constant dataType="double">2.258528392020262</Constant>
				</Apply>
			</DerivedField>
			<DerivedField name="tf-idf(lowercase(Text), deal)" optype="continuous" dataType="double">
				<Apply function="tf-idf(lowercase(Text))">
					<FieldRef field="lowercase(Text)"/>
					<Constant dataType="string">deal</Constant>
					<Constant dataType="double">4.620779041410005</Constant>
				</Apply>
			</DerivedField>
			<DerivedField name="tf-idf(lowercase(Text), decision)" optype="continuous" dataType="double">
				<Apply function="tf-idf(lowercase(Text))">
					<FieldRef field="lowercase(Text)"/>
					<Constant dataType="string">decision</Constant>
					<Constant dataType="double">3.7943319765029915</Constant>
				</Apply>
			</DerivedField>
			<DerivedField name="tf-idf(lowercase(Text), deep)" optype="continuous" dataType="double">
				<Apply function="tf-idf(lowercase(Text))">
					<FieldRef field="lowercase(Text)"/>
					<Constant dataType="string">deep</Constant>
					<Constant dataType="double">3.8683152836936396</Constant>
				</Apply>
			</DerivedField>
			<DerivedField name="tf-idf(lowercase(Text), deep learning)" optype="continuous" dataType="double">
				<Apply function="tf-idf(lowercase(Text))">
					<FieldRef field="lowercase(Text)"/>
					<Constant dataType="string">deep learning</Constant>
					<Constant dataType="double">4.726139557067831</Constant>
				</Apply>
			</DerivedField>
			<DerivedField name="tf-idf(lowercase(Text), defense)" optype="continuous" dataType="double">
				<Apply function="tf-idf(lowercase(Text))">
					<FieldRef field="lowercase(Text)"/>
					<Constant dataType="string">defense</Constant>
					<Constant dataType="double">5.407016645035962</Constant>
				</Apply>
			</DerivedField>
			<DerivedField name="tf-idf(lowercase(Text), define)" optype="continuous" dataType="double">
				<Apply function="tf-idf(lowercase(Text))">
					<FieldRef field="lowercase(Text)"/>
					<Constant dataType="string">define</Constant>
					<Constant dataType="double">3.68686670818603</Constant>
				</Apply>
			</DerivedField>
			<DerivedField name="tf-idf(lowercase(Text), degree)" optype="continuous" dataType="double">
				<Apply function="tf-idf(lowercase(Text))">
					<FieldRef field="lowercase(Text)"/>
					<Constant dataType="string">degree</Constant>
					<Constant dataType="double">4.4761978125988975</Constant>
				</Apply>
			</DerivedField>
			<DerivedField name="tf-idf(lowercase(Text), delay)" optype="continuous" dataType="double">
				<Apply function="tf-idf(lowercase(Text))">
					<FieldRef field="lowercase(Text)"/>
					<Constant dataType="string">delay</Constant>
					<Constant dataType="double">4.286955812960368</Constant>
				</Apply>
			</DerivedField>
			<DerivedField name="tf-idf(lowercase(Text), delivery)" optype="continuous" dataType="double">
				<Apply function="tf-idf(lowercase(Text))">
					<FieldRef field="lowercase(Text)"/>
					<Constant dataType="string">delivery</Constant>
					<Constant dataType="double">4.915896092349303</Constant>
				</Apply>
			</DerivedField>
			<DerivedField name="tf-idf(lowercase(Text), demand)" optype="continuous" dataType="double">
				<Apply function="tf-idf(lowercase(Text))">
					<FieldRef field="lowercase(Text)"/>
					<Constant dataType="string">demand</Constant>
					<Constant dataType="double">4.079316448182124</Constant>
				</Apply>
			</DerivedField>
			<DerivedField name="tf-idf(lowercase(Text), demonstrate)" optype="continuous" dataType="double">
				<Apply function="tf-idf(lowercase(Text))">
					<FieldRef field="lowercase(Text)"/>
					<Constant dataType="string">demonstrate</Constant>
					<Constant dataType="double">3.066149365470899</Constant>
				</Apply>
			</DerivedField>
			<DerivedField name="tf-idf(lowercase(Text), depend)" optype="continuous" dataType="double">
				<Apply function="tf-idf(lowercase(Text))">
					<FieldRef field="lowercase(Text)"/>
					<Constant dataType="string">depend</Constant>
					<Constant dataType="double">4.4292408295111265</Constant>
				</Apply>
			</DerivedField>
			<DerivedField name="tf-idf(lowercase(Text), deploy)" optype="continuous" dataType="double">
				<Apply function="tf-idf(lowercase(Text))">
					<FieldRef field="lowercase(Text)"/>
					<Constant dataType="string">deploy</Constant>
					<Constant dataType="double">4.136982090031934</Constant>
				</Apply>
			</DerivedField>
			<DerivedField name="tf-idf(lowercase(Text), deployment)" optype="continuous" dataType="double">
				<Apply function="tf-idf(lowercase(Text))">
					<FieldRef field="lowercase(Text)"/>
					<Constant dataType="string">deployment</Constant>
					<Constant dataType="double">4.324798166143529</Constant>
				</Apply>
			</DerivedField>
			<DerivedField name="tf-idf(lowercase(Text), depth)" optype="continuous" dataType="double">
				<Apply function="tf-idf(lowercase(Text))">
					<FieldRef field="lowercase(Text)"/>
					<Constant dataType="string">depth</Constant>
					<Constant dataType="double">4.881662920707061</Constant>
				</Apply>
			</DerivedField>
			<DerivedField name="tf-idf(lowercase(Text), derive)" optype="continuous" dataType="double">
				<Apply function="tf-idf(lowercase(Text))">
					<FieldRef field="lowercase(Text)"/>
					<Constant dataType="string">derive</Constant>
					<Constant dataType="double">4.300307146135233</Constant>
				</Apply>
			</DerivedField>
			<DerivedField name="tf-idf(lowercase(Text), describe)" optype="continuous" dataType="double">
				<Apply function="tf-idf(lowercase(Text))">
					<FieldRef field="lowercase(Text)"/>
					<Constant dataType="string">describe</Constant>
					<Constant dataType="double">3.358537328960093</Constant>
				</Apply>
			</DerivedField>
			<DerivedField name="tf-idf(lowercase(Text), design)" optype="continuous" dataType="double">
				<Apply function="tf-idf(lowercase(Text))">
					<FieldRef field="lowercase(Text)"/>
					<Constant dataType="string">design</Constant>
					<Constant dataType="double">2.2836136148191795</Constant>
				</Apply>
			</DerivedField>
			<DerivedField name="tf-idf(lowercase(Text), designer)" optype="continuous" dataType="double">
				<Apply function="tf-idf(lowercase(Text))">
					<FieldRef field="lowercase(Text)"/>
					<Constant dataType="string">designer</Constant>
					<Constant dataType="double">4.966927572361749</Constant>
				</Apply>
			</DerivedField>
			<DerivedField name="tf-idf(lowercase(Text), despite)" optype="continuous" dataType="double">
				<Apply function="tf-idf(lowercase(Text))">
					<FieldRef field="lowercase(Text)"/>
					<Constant dataType="string">despite</Constant>
					<Constant dataType="double">4.63570469162668</Constant>
				</Apply>
			</DerivedField>
			<DerivedField name="tf-idf(lowercase(Text), detail)" optype="continuous" dataType="double">
				<Apply function="tf-idf(lowercase(Text))">
					<FieldRef field="lowercase(Text)"/>
					<Constant dataType="string">detail</Constant>
					<Constant dataType="double">4.545877733236887</Constant>
				</Apply>
			</DerivedField>
			<DerivedField name="tf-idf(lowercase(Text), detect)" optype="continuous" dataType="double">
				<Apply function="tf-idf(lowercase(Text))">
					<FieldRef field="lowercase(Text)"/>
					<Constant dataType="string">detect</Constant>
					<Constant dataType="double">3.877079581687228</Constant>
				</Apply>
			</DerivedField>
			<DerivedField name="tf-idf(lowercase(Text), detection)" optype="continuous" dataType="double">
				<Apply function="tf-idf(lowercase(Text))">
					<FieldRef field="lowercase(Text)"/>
					<Constant dataType="string">detection</Constant>
					<Constant dataType="double">3.6166131082190427</Constant>
				</Apply>
			</DerivedField>
			<DerivedField name="tf-idf(lowercase(Text), determine)" optype="continuous" dataType="double">
				<Apply function="tf-idf(lowercase(Text))">
					<FieldRef field="lowercase(Text)"/>
					<Constant dataType="string">determine</Constant>
					<Constant dataType="double">4.0750153662827335</Constant>
				</Apply>
			</DerivedField>
			<DerivedField name="tf-idf(lowercase(Text), deterministic)" optype="continuous" dataType="double">
				<Apply function="tf-idf(lowercase(Text))">
					<FieldRef field="lowercase(Text)"/>
					<Constant dataType="string">deterministic</Constant>
					<Constant dataType="double">4.966927572361749</Constant>
				</Apply>
			</DerivedField>
			<DerivedField name="tf-idf(lowercase(Text), develop)" optype="continuous" dataType="double">
				<Apply function="tf-idf(lowercase(Text))">
					<FieldRef field="lowercase(Text)"/>
					<Constant dataType="string">develop</Constant>
					<Constant dataType="double">2.8667599001647965</Constant>
				</Apply>
			</DerivedField>
			<DerivedField name="tf-idf(lowercase(Text), developer)" optype="continuous" dataType="double">
				<Apply function="tf-idf(lowercase(Text))">
					<FieldRef field="lowercase(Text)"/>
					<Constant dataType="string">developer</Constant>
					<Constant dataType="double">4.347083210932963</Constant>
				</Apply>
			</DerivedField>
			<DerivedField name="tf-idf(lowercase(Text), development)" optype="continuous" dataType="double">
				<Apply function="tf-idf(lowercase(Text))">
					<FieldRef field="lowercase(Text)"/>
					<Constant dataType="string">development</Constant>
					<Constant dataType="double">3.0513918160919355</Constant>
				</Apply>
			</DerivedField>
			<DerivedField name="tf-idf(lowercase(Text), device)" optype="continuous" dataType="double">
				<Apply function="tf-idf(lowercase(Text))">
					<FieldRef field="lowercase(Text)"/>
					<Constant dataType="string">device</Constant>
					<Constant dataType="double">3.3926557768517855</Constant>
				</Apply>
			</DerivedField>
			<DerivedField name="tf-idf(lowercase(Text), difference)" optype="continuous" dataType="double">
				<Apply function="tf-idf(lowercase(Text))">
					<FieldRef field="lowercase(Text)"/>
					<Constant dataType="string">difference</Constant>
					<Constant dataType="double">4.405070468583313</Constant>
				</Apply>
			</DerivedField>
			<DerivedField name="tf-idf(lowercase(Text), different)" optype="continuous" dataType="double">
				<Apply function="tf-idf(lowercase(Text))">
					<FieldRef field="lowercase(Text)"/>
					<Constant dataType="string">different</Constant>
					<Constant dataType="double">2.61033037121712</Constant>
				</Apply>
			</DerivedField>
			<DerivedField name="tf-idf(lowercase(Text), difficult)" optype="continuous" dataType="double">
				<Apply function="tf-idf(lowercase(Text))">
					<FieldRef field="lowercase(Text)"/>
					<Constant dataType="string">difficult</Constant>
					<Constant dataType="double">4.178946289130965</Constant>
				</Apply>
			</DerivedField>
			<DerivedField name="tf-idf(lowercase(Text), digital)" optype="continuous" dataType="double">
				<Apply function="tf-idf(lowercase(Text))">
					<FieldRef field="lowercase(Text)"/>
					<Constant dataType="string">digital</Constant>
					<Constant dataType="double">4.018691826365689</Constant>
				</Apply>
			</DerivedField>
			<DerivedField name="tf-idf(lowercase(Text), dimension)" optype="continuous" dataType="double">
				<Apply function="tf-idf(lowercase(Text))">
					<FieldRef field="lowercase(Text)"/>
					<Constant dataType="string">dimension</Constant>
					<Constant dataType="double">4.7098126637804025</Constant>
				</Apply>
			</DerivedField>
			<DerivedField name="tf-idf(lowercase(Text), dimensional)" optype="continuous" dataType="double">
				<Apply function="tf-idf(lowercase(Text))">
					<FieldRef field="lowercase(Text)"/>
					<Constant dataType="string">dimensional</Constant>
					<Constant dataType="double">4.876866748443568</Constant>
				</Apply>
			</DerivedField>
			<DerivedField name="tf-idf(lowercase(Text), direct)" optype="continuous" dataType="double">
				<Apply function="tf-idf(lowercase(Text))">
					<FieldRef field="lowercase(Text)"/>
					<Constant dataType="string">direct</Constant>
					<Constant dataType="double">4.654680593085686</Constant>
				</Apply>
			</DerivedField>
			<DerivedField name="tf-idf(lowercase(Text), direction)" optype="continuous" dataType="double">
				<Apply function="tf-idf(lowercase(Text))">
					<FieldRef field="lowercase(Text)"/>
					<Constant dataType="string">direction</Constant>
					<Constant dataType="double">4.535621233069698</Constant>
				</Apply>
			</DerivedField>
			<DerivedField name="tf-idf(lowercase(Text), directly)" optype="continuous" dataType="double">
				<Apply function="tf-idf(lowercase(Text))">
					<FieldRef field="lowercase(Text)"/>
					<Constant dataType="string">directly</Constant>
					<Constant dataType="double">4.573754102765141</Constant>
				</Apply>
			</DerivedField>
			<DerivedField name="tf-idf(lowercase(Text), discuss)" optype="continuous" dataType="double">
				<Apply function="tf-idf(lowercase(Text))">
					<FieldRef field="lowercase(Text)"/>
					<Constant dataType="string">discuss</Constant>
					<Constant dataType="double">3.353309925524941</Constant>
				</Apply>
			</DerivedField>
			<DerivedField name="tf-idf(lowercase(Text), disease)" optype="continuous" dataType="double">
				<Apply function="tf-idf(lowercase(Text))">
					<FieldRef field="lowercase(Text)"/>
					<Constant dataType="string">disease</Constant>
					<Constant dataType="double">5.4400775072968495</Constant>
				</Apply>
			</DerivedField>
			<DerivedField name="tf-idf(lowercase(Text), display)" optype="continuous" dataType="double">
				<Apply function="tf-idf(lowercase(Text))">
					<FieldRef field="lowercase(Text)"/>
					<Constant dataType="string">display</Constant>
					<Constant dataType="double">4.961705628380598</Constant>
				</Apply>
			</DerivedField>
			<DerivedField name="tf-idf(lowercase(Text), distance)" optype="continuous" dataType="double">
				<Apply function="tf-idf(lowercase(Text))">
					<FieldRef field="lowercase(Text)"/>
					<Constant dataType="string">distance</Constant>
					<Constant dataType="double">4.472997809868226</Constant>
				</Apply>
			</DerivedField>
			<DerivedField name="tf-idf(lowercase(Text), distribute)" optype="continuous" dataType="double">
				<Apply function="tf-idf(lowercase(Text))">
					<FieldRef field="lowercase(Text)"/>
					<Constant dataType="string">distribute</Constant>
					<Constant dataType="double">3.666693113373789</Constant>
				</Apply>
			</DerivedField>
			<DerivedField name="tf-idf(lowercase(Text), distribution)" optype="continuous" dataType="double">
				<Apply function="tf-idf(lowercase(Text))">
					<FieldRef field="lowercase(Text)"/>
					<Constant dataType="string">distribution</Constant>
					<Constant dataType="double">3.9463239938622117</Constant>
				</Apply>
			</DerivedField>
			<DerivedField name="tf-idf(lowercase(Text), diverse)" optype="continuous" dataType="double">
				<Apply function="tf-idf(lowercase(Text))">
					<FieldRef field="lowercase(Text)"/>
					<Constant dataType="string">diverse</Constant>
					<Constant dataType="double">4.713869464476017</Constant>
				</Apply>
			</DerivedField>
			<DerivedField name="tf-idf(lowercase(Text), diversity)" optype="continuous" dataType="double">
				<Apply function="tf-idf(lowercase(Text))">
					<FieldRef field="lowercase(Text)"/>
					<Constant dataType="string">diversity</Constant>
					<Constant dataType="double">5.156605967381412</Constant>
				</Apply>
			</DerivedField>
			<DerivedField name="tf-idf(lowercase(Text), document)" optype="continuous" dataType="double">
				<Apply function="tf-idf(lowercase(Text))">
					<FieldRef field="lowercase(Text)"/>
					<Constant dataType="string">document</Constant>
					<Constant dataType="double">4.563209189588527</Constant>
				</Apply>
			</DerivedField>
			<DerivedField name="tf-idf(lowercase(Text), domain)" optype="continuous" dataType="double">
				<Apply function="tf-idf(lowercase(Text))">
					<FieldRef field="lowercase(Text)"/>
					<Constant dataType="string">domain</Constant>
					<Constant dataType="double">3.581942969123922</Constant>
				</Apply>
			</DerivedField>
			<DerivedField name="tf-idf(lowercase(Text), drive)" optype="continuous" dataType="double">
				<Apply function="tf-idf(lowercase(Text))">
					<FieldRef field="lowercase(Text)"/>
					<Constant dataType="string">drive</Constant>
					<Constant dataType="double">3.8700620090285813</Constant>
				</Apply>
			</DerivedField>
			<DerivedField name="tf-idf(lowercase(Text), due)" optype="continuous" dataType="double">
				<Apply function="tf-idf(lowercase(Text))">
					<FieldRef field="lowercase(Text)"/>
					<Constant dataType="string">due</Constant>
					<Constant dataType="double">3.3481097057978335</Constant>
				</Apply>
			</DerivedField>
			<DerivedField name="tf-idf(lowercase(Text), dynamic)" optype="continuous" dataType="double">
				<Apply function="tf-idf(lowercase(Text))">
					<FieldRef field="lowercase(Text)"/>
					<Constant dataType="string">dynamic</Constant>
					<Constant dataType="double">3.4881828999262963</Constant>
				</Apply>
			</DerivedField>
			<DerivedField name="tf-idf(lowercase(Text), early)" optype="continuous" dataType="double">
				<Apply function="tf-idf(lowercase(Text))">
					<FieldRef field="lowercase(Text)"/>
					<Constant dataType="string">early</Constant>
					<Constant dataType="double">4.426187392024236</Constant>
				</Apply>
			</DerivedField>
			<DerivedField name="tf-idf(lowercase(Text), easily)" optype="continuous" dataType="double">
				<Apply function="tf-idf(lowercase(Text))">
					<FieldRef field="lowercase(Text)"/>
					<Constant dataType="string">easily</Constant>
					<Constant dataType="double">4.689771912896957</Constant>
				</Apply>
			</DerivedField>
			<DerivedField name="tf-idf(lowercase(Text), easy)" optype="continuous" dataType="double">
				<Apply function="tf-idf(lowercase(Text))">
					<FieldRef field="lowercase(Text)"/>
					<Constant dataType="string">easy</Constant>
					<Constant dataType="double">4.566711820139728</Constant>
				</Apply>
			</DerivedField>
			<DerivedField name="tf-idf(lowercase(Text), economic)" optype="continuous" dataType="double">
				<Apply function="tf-idf(lowercase(Text))">
					<FieldRef field="lowercase(Text)"/>
					<Constant dataType="string">economic</Constant>
					<Constant dataType="double">5.037417450116294</Constant>
				</Apply>
			</DerivedField>
			<DerivedField name="tf-idf(lowercase(Text), edge)" optype="continuous" dataType="double">
				<Apply function="tf-idf(lowercase(Text))">
					<FieldRef field="lowercase(Text)"/>
					<Constant dataType="string">edge</Constant>
					<Constant dataType="double">4.390255382798172</Constant>
				</Apply>
			</DerivedField>
			<DerivedField name="tf-idf(lowercase(Text), education)" optype="continuous" dataType="double">
				<Apply function="tf-idf(lowercase(Text))">
					<FieldRef field="lowercase(Text)"/>
					<Constant dataType="string">education</Constant>
					<Constant dataType="double">4.3275567885826085</Constant>
				</Apply>
			</DerivedField>
			<DerivedField name="tf-idf(lowercase(Text), educational)" optype="continuous" dataType="double">
				<Apply function="tf-idf(lowercase(Text))">
					<FieldRef field="lowercase(Text)"/>
					<Constant dataType="string">educational</Constant>
					<Constant dataType="double">5.156605967381412</Constant>
				</Apply>
			</DerivedField>
			<DerivedField name="tf-idf(lowercase(Text), effect)" optype="continuous" dataType="double">
				<Apply function="tf-idf(lowercase(Text))">
					<FieldRef field="lowercase(Text)"/>
					<Constant dataType="string">effect</Constant>
					<Constant dataType="double">3.8665716040888127</Constant>
				</Apply>
			</DerivedField>
			<DerivedField name="tf-idf(lowercase(Text), effective)" optype="continuous" dataType="double">
				<Apply function="tf-idf(lowercase(Text))">
					<FieldRef field="lowercase(Text)"/>
					<Constant dataType="string">effective</Constant>
					<Constant dataType="double">3.624787540658601</Constant>
				</Apply>
			</DerivedField>
			<DerivedField name="tf-idf(lowercase(Text), effectively)" optype="continuous" dataType="double">
				<Apply function="tf-idf(lowercase(Text))">
					<FieldRef field="lowercase(Text)"/>
					<Constant dataType="string">effectively</Constant>
					<Constant dataType="double">4.232748995123941</Constant>
				</Apply>
			</DerivedField>
			<DerivedField name="tf-idf(lowercase(Text), effectiveness)" optype="continuous" dataType="double">
				<Apply function="tf-idf(lowercase(Text))">
					<FieldRef field="lowercase(Text)"/>
					<Constant dataType="string">effectiveness</Constant>
					<Constant dataType="double">3.9020363136610956</Constant>
				</Apply>
			</DerivedField>
			<DerivedField name="tf-idf(lowercase(Text), efficiency)" optype="continuous" dataType="double">
				<Apply function="tf-idf(lowercase(Text))">
					<FieldRef field="lowercase(Text)"/>
					<Constant dataType="string">efficiency</Constant>
					<Constant dataType="double">3.6681206653649747</Constant>
				</Apply>
			</DerivedField>
			<DerivedField name="tf-idf(lowercase(Text), efficient)" optype="continuous" dataType="double">
				<Apply function="tf-idf(lowercase(Text))">
					<FieldRef field="lowercase(Text)"/>
					<Constant dataType="string">efficient</Constant>
					<Constant dataType="double">3.2512917986064953</Constant>
				</Apply>
			</DerivedField>
			<DerivedField name="tf-idf(lowercase(Text), efficiently)" optype="continuous" dataType="double">
				<Apply function="tf-idf(lowercase(Text))">
					<FieldRef field="lowercase(Text)"/>
					<Constant dataType="string">efficiently</Constant>
					<Constant dataType="double">4.284306804788791</Constant>
				</Apply>
			</DerivedField>
			<DerivedField name="tf-idf(lowercase(Text), effort)" optype="continuous" dataType="double">
				<Apply function="tf-idf(lowercase(Text))">
					<FieldRef field="lowercase(Text)"/>
					<Constant dataType="string">effort</Constant>
					<Constant dataType="double">4.090150790347835</Constant>
				</Apply>
			</DerivedField>
			<DerivedField name="tf-idf(lowercase(Text), either)" optype="continuous" dataType="double">
				<Apply function="tf-idf(lowercase(Text))">
					<FieldRef field="lowercase(Text)"/>
					<Constant dataType="string">either</Constant>
					<Constant dataType="double">4.387318523124863</Constant>
				</Apply>
			</DerivedField>
			<DerivedField name="tf-idf(lowercase(Text), electronic)" optype="continuous" dataType="double">
				<Apply function="tf-idf(lowercase(Text))">
					<FieldRef field="lowercase(Text)"/>
					<Constant dataType="string">electronic</Constant>
					<Constant dataType="double">5.083402563358118</Constant>
				</Apply>
			</DerivedField>
			<DerivedField name="tf-idf(lowercase(Text), element)" optype="continuous" dataType="double">
				<Apply function="tf-idf(lowercase(Text))">
					<FieldRef field="lowercase(Text)"/>
					<Constant dataType="string">element</Constant>
					<Constant dataType="double">4.492353252821182</Constant>
				</Apply>
			</DerivedField>
			<DerivedField name="tf-idf(lowercase(Text), embed)" optype="continuous" dataType="double">
				<Apply function="tf-idf(lowercase(Text))">
					<FieldRef field="lowercase(Text)"/>
					<Constant dataType="string">embed</Constant>
					<Constant dataType="double">3.8683152836936396</Constant>
				</Apply>
			</DerivedField>
			<DerivedField name="tf-idf(lowercase(Text), embed system)" optype="continuous" dataType="double">
				<Apply function="tf-idf(lowercase(Text))">
					<FieldRef field="lowercase(Text)"/>
					<Constant dataType="string">embed system</Constant>
					<Constant dataType="double">4.988092383553793</Constant>
				</Apply>
			</DerivedField>
			<DerivedField name="tf-idf(lowercase(Text), emerge)" optype="continuous" dataType="double">
				<Apply function="tf-idf(lowercase(Text))">
					<FieldRef field="lowercase(Text)"/>
					<Constant dataType="string">emerge</Constant>
					<Constant dataType="double">4.107733660905701</Constant>
				</Apply>
			</DerivedField>
			<DerivedField name="tf-idf(lowercase(Text), empirical)" optype="continuous" dataType="double">
				<Apply function="tf-idf(lowercase(Text))">
					<FieldRef field="lowercase(Text)"/>
					<Constant dataType="string">empirical</Constant>
					<Constant dataType="double">4.375656583377019</Constant>
				</Apply>
			</DerivedField>
			<DerivedField name="tf-idf(lowercase(Text), employ)" optype="continuous" dataType="double">
				<Apply function="tf-idf(lowercase(Text))">
					<FieldRef field="lowercase(Text)"/>
					<Constant dataType="string">employ</Constant>
					<Constant dataType="double">4.157744081480362</Constant>
				</Apply>
			</DerivedField>
			<DerivedField name="tf-idf(lowercase(Text), enable)" optype="continuous" dataType="double">
				<Apply function="tf-idf(lowercase(Text))">
					<FieldRef field="lowercase(Text)"/>
					<Constant dataType="string">enable</Constant>
					<Constant dataType="double">3.1848130704928765</Constant>
				</Apply>
			</DerivedField>
			<DerivedField name="tf-idf(lowercase(Text), encryption)" optype="continuous" dataType="double">
				<Apply function="tf-idf(lowercase(Text))">
					<FieldRef field="lowercase(Text)"/>
					<Constant dataType="string">encryption</Constant>
					<Constant dataType="double">5.382919093456901</Constant>
				</Apply>
			</DerivedField>
